5000 32
1515 1.1934909 -0.14829056 -2.0102007 -1.0729797 -0.84691566 1.5507431 1.7451432 1.2249538 -0.76536447 0.5048999 -2.6870477 -3.7942746 -1.8404402 0.12989196 -1.1638471 -2.8710482 0.006675362 0.0703373 -0.050483145 -1.4460628 -1.1509217 -0.09632491 -0.5030496 -0.0736605 -0.0362143 2.026117 -0.2994522 2.0360053 -1.2401152 2.112874 2.2383254 1.4123245
2534 1.310116 -1.98693 2.5038831 -1.2346321 0.8221383 1.9890252 0.7694276 -1.3135942 0.14107728 0.5751168 -0.57705617 -3.3619106 0.052156646 -1.1761384 0.11872934 -1.7712886 -2.704639 -2.2596302 0.031823065 -1.6205944 1.8276436 0.3399302 1.590739 0.59033114 1.8211541 0.08974474 -0.8354829 2.3923545 0.5697651 -1.858776 1.865608 -1.5848246
3910 -0.4343962 -0.1524205 0.44151333 1.1149465 -1.5524452 -0.9451576 1.3759087 -0.1624663 2.0752978 -1.8880062 -3.9791362 -0.692188 -1.2207847 -1.5750589 -0.03249853 -2.039354 1.4208269 0.8826201 1.5896783 -1.0289589 0.39418462 0.4408082 -1.9736235 0.31221563 -2.56284 2.3766315 -0.1820093 2.29363 -1.6270709 -0.118003495 2.310726 -2.021727
1371 3.327934 -0.9279141 -1.71303 0.8336873 1.3813571 0.7944647 -0.1549051 0.7970671 0.10635117 2.3381743 -1.7197193 -1.8387209 -1.395608 0.16964301 -0.3760846 -0.79690945 0.9312025 0.071180806 -1.6344622 -0.15590093 -0.08406324 3.2477453 2.9467754 0.16547687 -1.9488007 0.67740583 -3.107658 -2.417604 1.2170026 -2.1543276 2.3650124 -0.74881566
287 -0.06570929 -0.972606 0.13523473 0.78294665 1.1796522 -2.8229733 0.1994283 0.27315003 -0.34691778 0.39185777 -0.56541747 -1.4019414 -0.53242534 2.21675 2.5330238 1.9209442 0.5766903 0.22712499 0.24162617 -2.4228134 -2.8559315 1.1805204 -1.5751674 1.3626021 -0.31509992 2.1363497 -1.211709 1.7861336 3.0405562 -2.5199883 1.0153908 -0.90666384
747 0.87055534 0.5583135 1.3574632 -1.8882487 0.4911739 0.66387284 0.5139414 -1.5564705 4.1948404 -0.043479722 1.554794 -0.38809308 -3.5211554 2.249045 1.4999151 1.020488 -0.9024058 -1.6278119 -1.0313668 -1.0686218 0.13952778 -0.48235226 1.0386415 -1.1666325 -0.45090553 -0.11212958 -1.1473156 1.7866201 1.3879431 -1.4561384 1.7525096 0.8292444
2830 -0.52663285 -0.42706382 1.6371498 -0.66869634 0.78936017 -0.46478987 0.9313581 0.0692959 -0.25672606 -0.48808685 -0.32759464 -1.2225306 2.6494818 0.8467698 4.2015367 -0.60691077 0.8025449 -1.7358104 0.99126476 -0.8822666 -0.20668565 0.78584427 -0.7611655 -0.95050174 -1.5371045 0.1966985 -4.6147876 0.034031115 0.5550142 2.5244749 1.5741624 -1.1050926
3272 0.47890544 -0.74536496 1.4711491 -2.5670912 0.5888576 -0.45682293 2.7456708 -0.18927185 1.3682969 -0.36190256 1.8419559 -1.690881 -0.6685349 1.0413115 0.17338324 -0.62186706 -0.8659445 0.1778327 1.1062711 0.47523618 -3.6978664 0.23918208 0.40018177 0.4743648 -0.5998421 1.351503 -3.8866234 -1.0040599 -3.3837051 1.3844703 1.0228518 0.12125131
3894 -0.4750854 1.0559909 0.9815779 -2.874896 0.65421605 -0.6360049 2.2089376 0.848017 2.1045916 -1.8307592 1.6808774 -2.5695462 0.3116534 0.696256 0.7511303 -0.3271414 -0.6088093 -0.16609459 2.1647687 0.53168875 -3.2649958 0.72067404 0.2997397 0.71789354 -0.6069445 2.3949823 -3.2575858 -1.4854412 -1.7018179 0.62851185 2.0743823 0.3538298
2002 -2.3943765 -1.7031225 0.20922913 0.35110575 1.2102351 -1.1457949 -0.9236875 -1.4164635 2.0278347 0.9515639 -1.2939285 -1.0986717 -2.995576 0.5099912 -0.96500546 2.300623 -0.44486248 -0.4048258 -0.13647042 -0.5266587 0.41597924 -0.3249234 1.5256014 1.2566417 1.5564938 0.05617751 -4.6833897 -0.2101083 -0.6252148 -0.6600055 -0.8930241 4.0543113
53 -0.32282323 -2.2043526 -0.83605987 -0.7351308 2.4773602 0.54573363 2.7694142 -1.585013 -1.1114273 -0.9047842 -3.432415 -2.2609072 -0.6489527 1.641029 0.8677209 0.8051531 1.7757465 0.55766684 0.3647801 -0.63709897 -2.4473062 -0.94843924 0.80230755 0.69195646 -0.625515 0.9076432 -0.063797735 0.7406337 1.0446669 -4.0698776 0.52598536 0.21877024
4366 -1.0299401 -0.5288256 0.05843047 -0.932015 0.3024885 0.0020438803 -0.48199365 1.4231553 1.9702721 -0.7830508 -0.17390019 -1.0134776 -0.68229854 -0.17818679 -1.2632235 -2.014646 -0.35590702 1.5976655 -0.67120594 -4.750768 1.6526816 0.83314717 0.8067482 -0.29320323 -0.90807056 0.7329466 -0.5045972 3.1476164 -2.1162713 1.534891 3.5812876 -3.6799142
4622 0.7836237 -0.9592655 3.0339828 -0.077076994 0.63792276 0.90132636 1.519894 -0.55914044 0.46602228 -1.1201974 -0.48658115 -1.8379426 0.38386732 0.4811135 -0.53878963 -1.0839363 -1.6900517 0.77089465 -0.7729216 -2.7469945 2.0772097 0.52028966 0.29870048 0.59870046 -3.032707 1.6398802 -0.6472403 3.4358776 -0.7402741 0.34233487 3.025577 -1.5977712
2431 -0.036631618 1.4398179 -0.59014064 -1.1767237 -0.48287013 0.7853145 1.2646277 -0.5689714 -0.63568467 -0.6279099 -1.3614763 -1.6912098 -0.3605911 -0.04853415 -2.1562376 0.44772625 -3.0450563 2.8837862 3.0654874 -0.6247048 0.061825838 0.6710015 2.1176105 1.2380061 -1.6088833 -0.027694542 -3.1311843 0.04113401 0.15196112 -2.450615 0.9163154 -1.2102727
2879 0.050353233 0.5591042 -2.6777565 0.37954623 0.5693093 -0.49473855 -1.8168241 1.2611506 1.7477248 -0.44222426 -0.8093832 0.25727344 -0.65319985 0.2078877 -0.91259605 -1.1747901 -0.7983174 -0.53806806 -0.3393362 -2.4826467 -2.068407 0.96240187 1.3383993 -0.03744559 0.7235799 1.4860624 -2.0204673 -0.046514213 -1.6941875 1.3211007 3.105467 -3.5339465
1262 0.1210323 0.3902789 -0.6457361 -1.5406685 0.20703329 -0.05901495 1.9510834 -1.675763 0.1685465 1.6841315 -3.004979 -2.5661886 0.30738163 0.5075385 -1.2560186 2.1919146 2.3004172 -0.7303019 0.9351659 -0.46818826 -1.0382235 -1.9170406 -2.1858058 2.0698953 0.6376095 -0.64563 -2.718483 0.5233197 -0.05808531 -2.6620686 0.121834636 -2.7841322
619 0.78998315 1.296634 0.38487867 0.12017344 -0.30437583 0.10619027 1.7133132 -0.95714504 -0.96440184 -0.091704935 -1.6501046 -2.219523 -0.63089347 -0.38193575 -2.6413035 0.91379184 -3.6031752 1.6621741 2.9118085 -0.36521628 -0.49678326 0.39165297 2.1835968 1.1601746 -1.108401 -0.593589 -3.1170135 -0.2794134 0.38632962 -2.2968154 1.5653512 -1.2338406
1061 1.6400765 1.094132 1.1090882 1.8372724 -1.9265008 1.9203897 -1.3501749 -2.5352283 2.2068117 -0.28774795 -2.0872161 -0.20831785 -0.50985354 1.8219848 0.44579062 -2.4299004 -0.05964688 -1.3829416 0.20750894 1.6405721 -2.0532243 1.8421502 3.2020671 0.5107627 -1.8663495 1.1331568 -0.21000585 0.40610036 0.9356118 0.8944173 1.8468432 -0.43683407
2264 -0.19310167 -2.1304436 -0.28462264 -0.2462938 1.8841639 0.5161437 1.02732 -0.9094077 -2.0823658 -1.0192556 -3.1411786 -1.93873 -1.6732863 1.2584893 2.2372122 0.93058723 1.8584412 -0.71475405 -0.6133537 -0.87773794 -2.176658 -1.1586835 1.0748036 0.7879013 -1.2038131 0.1745679 -0.6452863 1.1040047 -0.06574282 -3.1750636 1.8995098 1.2247317
4602 -1.2188733 -2.5260553 0.8993496 -0.23989736 -0.3216733 -1.0477196 -0.24893469 0.26193967 0.15280044 -3.0691447 -4.200994 -0.35500076 -2.5070455 2.0434344 1.9506278 0.95255405 -0.98859143 -1.7614254 -0.016687702 -1.9294984 2.0310516 1.4751958 1.5451541 -0.82639337 -1.2274992 1.4487834 1.184216 -0.106388465 -0.2609856 0.6041645 0.13379236 -2.8324115
3348 1.5742718 2.2267787 -0.26765564 0.24250245 -1.029186 1.7589114 -0.74340296 -2.4613075 0.64334065 0.4041522 -1.906055 -1.4383572 -0.76180786 1.400167 3.6987805 0.19052854 -0.70652264 0.030617336 2.2959173 1.4764482 0.97783595 3.1066685 2.3122423 0.5399086 -0.8494529 1.387356 -0.12095096 -1.2062165 -1.4579059 0.0687982 1.6848838 0.78314173
4615 0.046566524 -0.35957235 1.774248 2.1052043 -0.11143092 0.50563234 1.3476815 0.48646858 -0.51765746 -0.3987773 -2.8146904 0.8593963 -2.5530784 0.17854345 0.648135 -0.59644055 -0.09105494 0.46557543 2.7783406 -0.68872416 1.250972 0.56723946 1.4513228 0.049031027 -2.6292174 -1.3296765 -3.8528597 -0.26216164 1.4598734 1.5409566 0.2792573 -0.7617904
1660 0.47485042 -1.3717732 -0.33531794 -0.5832745 1.4832016 -0.74337935 1.0742112 2.3182545 0.7280384 0.44215742 -1.431855 0.8781995 -1.5633203 1.8328272 -3.257856 -0.15297256 0.034987744 -0.77898556 1.2823929 0.03538834 0.50465673 -1.5008466 -0.09131238 -1.4804894 -2.0151832 2.9194078 -3.4039738 1.3285065 -0.5646544 -1.6162874 1.9995002 0.7667925
1083 1.1513807 -0.68096054 1.333581 -0.10400183 -0.15490095 -0.2601507 0.48504958 -2.2410917 1.521827 0.022073952 1.0222188 -0.9629393 -1.0984149 -1.1515269 -1.3935024 1.3186244 2.616398 0.2926251 2.2286036 -0.76163864 0.7277656 -0.6205564 1.4880786 -1.140022 -0.11620282 2.284869 -3.8001032 -0.062281307 -2.5133882 0.28000948 0.808517 0.27722904
611 1.8012 -1.550001 -0.64332134 -0.34449223 -2.0541043 -2.509503 -1.0785533 0.3085561 -1.1728686 -1.0313414 -1.1487437 -1.2110205 -0.86481297 -0.5877504 0.13387951 0.24793787 -0.6082337 -1.2129002 -0.2666719 -0.35914442 -0.7435907 2.2551455 1.8633529 -0.13788645 -0.7619985 2.1956878 -1.6208328 2.8883135 -1.080998 -3.1252406 -0.5242203 1.3390592
3917 -0.81421846 0.2736163 0.95668685 -0.23317553 1.9979717 -1.3063797 1.0881892 0.11874992 -1.6128695 0.21565029 -1.7932296 0.5114726 -1.8064893 3.761079 -0.1998796 0.95533043 0.7757544 -0.053365562 2.7002811 0.070971854 -0.19253388 0.95635515 -0.25523543 1.2405869 -4.2043996 -1.6368054 -0.7471322 0.78546256 1.3830899 0.43651995 3.2346156 -1.7367423
1296 -0.52085376 -0.58449686 1.1811742 0.21654807 1.7367693 -1.536008 0.74730724 -2.3674986 0.39847106 -0.07149429 -1.920356 1.3043619 -2.3005157 2.92913 -0.8916702 0.25553763 1.1948779 0.6367957 1.5307366 -0.11920716 -0.51013875 2.7056773 -0.026697867 1.266883 -3.492481 -2.3648212 -1.3087314 0.55692977 0.18767418 2.9446862 1.9178364 -0.5523216
4693 1.6957958 -1.8555764 0.34448737 0.27965435 -0.94676536 -1.0921664 1.670093 1.4263355 1.1930373 0.40579087 -1.0598208 -1.3512826 -2.280968 1.6938814 3.2405899 1.2395973 0.10211991 0.19723392 1.6364952 0.2646412 2.5717876 1.3640623 1.0803809 -0.5142521 2.3515499 4.348934 -1.6033119 0.85505176 0.43438774 1.2059616 0.05882479 0.3986597
4904 0.93788433 0.7529538 1.6660196 -1.7434832 0.28146952 -0.67073727 2.2851005 -4.0722423 1.0666394 1.115782 -1.9252046 -0.9058926 -0.35720244 -1.0820408 0.12606406 1.5320436 0.83831775 0.110491455 0.90518785 -2.5138106 -1.1052167 1.483941 -1.7834672 -0.035138488 -0.33774322 1.5155629 0.069055006 1.2935601 -0.468813 -0.4496418 -1.8818184 -1.5534122
1463 2.0463605 1.2667567 -2.3725157 0.40220115 -0.36300203 -0.29821885 -0.3111091 -0.3628335 0.460737 -0.6487439 -0.92425764 -0.63093174 -2.9906766 -0.6656807 1.6224185 1.526631 0.3354333 0.29795364 1.4513881 -0.4896049 0.49028584 0.3683961 2.2364583 -0.41603705 2.949104 2.9765174 -2.4890845 2.6655092 0.2678581 2.3130715 -0.5115391 -0.02228082
787 1.684658 -0.6157654 0.47922516 -1.8001938 -0.49531767 1.7073452 -0.7505269 -0.45843232 2.2403753 1.4029171 0.10061328 -0.5666016 -1.4120175 3.8517911 0.41231826 0.697236 0.021656875 -0.15102191 2.096416 -2.6502838 1.4402099 1.0272808 -0.601097 -2.0883455 1.7045153 -1.5368276 -0.9671097 -0.66065687 0.071378164 2.2027168 0.9543372 -1.8862255
3725 0.18432407 -1.8244218 -2.215929 1.2819208 -3.478876 0.97662574 -1.1757988 -0.9722541 0.88856953 0.29721868 -1.0191082 -1.0759428 -0.3822602 2.7869544 0.603135 -1.9581797 1.6907458 -2.281288 -0.21457078 0.18071945 -1.0704956 0.7768374 2.4938111 0.5354818 -0.30269596 -0.3865337 -2.5262086 -0.5447993 -0.101399384 -2.4585292 1.0285716 -1.6489476
4652 0.39452237 -4.6332455 -0.4639199 -0.11214872 0.108012006 0.0026474951 -0.55522865 1.567269 -0.29356036 -2.9768295 -1.8909707 -1.0269786 -1.4649624 1.2535938 0.4528608 2.6718059 0.66508967 -1.1254425 0.83333504 -1.5211076 2.5301645 1.5554088 -0.18074267 -0.019027142 0.06522302 1.4665585 -1.0238727 0.42367133 -0.6179735 1.6571983 1.5168656 -0.6716321
3740 -2.2933462 1.5625376 0.04863154 0.17217572 -0.6362405 1.4540967 -1.4339863 0.012832139 -1.6000644 1.3779812 -3.9983563 -1.3569337 -0.9396146 0.7526228 -0.11673249 2.2225335 1.1765848 -1.896175 0.5341692 -1.8183568 0.099119596 0.16921106 -0.99742943 1.4080851 -1.497818 -1.1877596 -1.6546144 1.9619803 -1.2327302 -1.9931309 0.34113166 1.5141728
4995 -1.9458067 1.6567076 0.21519679 -2.1050603 0.34696892 -1.1088994 2.200104 1.2649107 2.0306897 -2.371108 1.0093758 -2.9110293 0.54130805 -0.6335869 1.4619452 -0.5577463 -0.51552266 -1.0919068 2.9795039 -0.21020421 -2.9199421 1.3142437 0.38520938 1.2432932 0.6719939 1.3325531 -1.204498 0.030351622 0.6853309 -0.017792052 2.8766863 0.7285646
4039 1.5214982 -0.45985165 -1.597837 -0.18151769 -0.57013476 -0.61866784 0.9378186 -0.34443653 1.0760013 -0.7228733 -0.3442007 0.811599 -2.2572324 -0.8717229 1.1709696 2.2358334 1.4078803 -0.43772593 1.4537749 -1.7273455 1.4109282 0.011259641 3.0653088 0.67790306 1.375382 3.088843 -2.9365168 2.3017917 0.6788491 2.4275622 -0.74587995 -0.3469277
1016 2.4352763 -0.18114877 0.293771 0.70162797 -0.5319353 0.458659 -1.9977868 -0.6985661 0.62277555 0.092569485 -0.802647 -0.19435513 0.4672718 -0.4633331 0.26705647 -0.7253499 -3.469187 -2.929934 2.9027972 0.40528312 0.18192613 -0.8286678 -0.2775237 2.626866 -2.0136483 0.314608 -3.4376886 0.9548963 -1.5608655 -0.5581686 0.3213182 1.3758621
2959 0.88778615 -0.33443242 -1.8191478 -0.98009884 -0.8752216 1.2510213 1.9533267 1.2508641 -0.39304116 0.33688575 -2.490928 -3.442109 -2.4874272 0.062819965 -1.081556 -2.4890904 -0.098165706 0.033800367 0.23267189 -1.5135729 -0.83742625 0.2626707 -0.29450172 -0.09988728 0.37862048 1.5851071 -0.36006147 2.0164027 -1.2873144 1.5837315 1.9672123 1.631153
1747 1.0286269 -3.5103314 1.372138 1.0415041 0.8818571 -1.4158758 3.163725 -0.683898 0.61370116 0.6632897 -2.5697608 -2.289954 -0.14543815 1.5051036 0.5768228 0.33586785 -0.4371267 -1.4166825 0.034469783 1.8445666 1.8938937 0.044593826 -0.6681652 0.6163719 1.9091518 1.787961 -1.8558848 -0.47148323 -2.105268 -0.7862017 -0.07465088 0.7346021
2807 0.12451845 0.44593486 2.0691288 -0.61341625 -0.049533535 0.68081826 2.8839579 1.0462967 1.3409823 -2.236891 -0.8898818 -1.7659212 -0.2983646 1.4369051 -1.0464684 1.4834099 1.3279562 0.0269313 0.9786404 0.76332736 -1.3592093 0.7752663 0.4521722 -2.8983269 -0.87807906 2.0380714 -0.72061306 -0.34430295 -0.32362294 -2.274045 -0.1769105 -5.058465
3588 -0.3120934 -0.37827677 1.9767016 -0.05084085 -0.19889602 -0.24066357 0.61399055 -0.6540496 0.28422594 1.2622124 -2.576464 1.1972388 2.4159186 -0.36661768 -1.2907945 -1.0171009 0.102876805 -0.4092903 2.2069998 1.760004 -0.045372393 1.0194712 -0.62045926 1.9260077 1.8819355 0.76104766 -4.588691 0.16877113 -0.37250817 -0.5567008 2.03867 -0.5170524
3220 0.7729094 -0.7528883 2.8675325 -0.5884033 0.7271878 1.0132548 1.073381 -0.047008052 0.19183533 -0.81295156 -0.07506695 -1.6282341 0.35975337 0.9327641 -0.9541036 -1.0527484 -1.5418742 0.8546105 -1.1913284 -3.2961438 1.8361857 0.93401587 1.2533232 0.76406753 -2.2853484 1.2414293 -0.8742764 3.1801481 -0.53927064 0.60884285 3.110202 -1.77411
4014 0.6337527 -1.1957942 -1.4201005 0.36549506 -1.7079732 -1.9027779 0.49453703 -1.1241326 2.5742745 0.2768701 -0.784996 -3.9113395 -0.5986205 0.6156939 -2.2389476 1.1033384 -1.3385271 0.7883374 -0.9418864 -1.4989585 -1.7605909 3.2041695 1.9372653 1.3384129 0.2185682 0.6745139 -0.7161429 -0.21523976 0.5907602 1.2073754 0.23803987 2.1581073
270 -1.1874398 1.8435694 -0.10232315 3.5242 1.0062699 1.34286 0.3439718 -0.27811253 0.27170572 -1.2744694 -0.9021366 -1.2902443 -1.0859661 1.8676602 0.12875916 1.6832227 0.012565106 -2.8403895 1.2151338 -1.7231297 0.075680256 2.1908312 -1.321177 0.8664327 -0.1440292 -0.11860798 -1.1558589 2.684927 -2.0337887 -1.7260616 -0.5151756 1.0125085
4025 0.9921678 -0.010429921 -0.051663306 -0.80410516 0.20910694 1.3215014 1.702282 -0.003611151 -1.1133423 -0.8330481 -2.3793573 -2.9576652 2.2686985 1.0830637 0.8401193 -0.68243885 0.39348832 -1.1027062 -0.40778637 -1.1845108 -1.4026951 -0.5486131 -0.7704379 -0.27351052 -1.8534786 2.6236088 -2.8667815 -0.8498087 0.5551343 2.6048658 1.4209744 -1.7386674
176 1.5924549 2.019027 1.3308923 0.39130947 -1.1745503 0.07515932 -1.6999865 -2.0579998 -0.2910147 -0.02463534 0.47008118 -0.72372365 -1.9960402 -1.150804 -1.7883595 0.1536273 1.342105 -0.62785566 2.6056685 -1.9256365 -2.0393693 1.7825814 0.79842186 -2.559625 0.5232522 3.3211358 -3.0389934 0.46260238 0.25891536 0.36500657 -0.12011474 0.20370537
3690 -1.6813881 1.1615971 0.05758242 -0.8925504 -0.34854233 1.4314638 -0.805 -0.060821723 -1.3833225 1.7767482 -4.6848297 -1.8145664 -1.027592 0.37702516 0.009043748 1.8741618 1.6493901 -0.919556 0.7249443 -1.6835852 -0.11932565 -1.5732147 -0.8219814 1.6516892 -1.4536886 -1.422509 -1.721218 1.5834893 -1.2112395 -2.3821428 0.56745195 0.6232823
1430 1.10498 2.1110597 1.2501435 -0.45576304 -1.4248961 -2.8196714 -2.2816112 -0.6739655 -1.1428798 -1.2848974 -1.5806473 0.46056375 1.2035257 0.52107465 0.03918027 -1.4497166 -0.49888504 -1.7497615 1.2250838 -1.5355115 -0.08573495 0.14916016 0.11101149 2.1980743 0.7679307 -0.28138006 -3.3843315 2.139674 -0.39949787 -2.2310476 1.5024035 1.5006931
4288 -0.024263032 -1.9121594 -2.1855457 1.4437652 -3.0588222 1.2362639 -1.5595849 -1.2781935 0.6856356 -0.007962277 -1.6225944 -1.0294602 -0.34547365 3.3634417 0.6709135 -1.8370863 1.3136399 -2.6080365 0.465019 0.5581943 -0.7325731 0.81675607 2.5647402 0.38432044 -0.37016547 -0.55807287 -2.2242904 -0.34257463 -0.0020451986 -2.1811743 1.0834509 -1.8340288
783 0.5223898 -2.4360824 -2.3564403 -0.82592976 1.5007117 -0.9869927 -0.5641917 -2.466077 -1.4055402 0.377634 -1.4820576 -1.1402371 1.0011646 -0.5236985 0.26963392 1.1260507 0.8717124 0.21835874 1.5295998 -1.8126574 -1.3505254 2.3885336 1.1856022 2.8970227 -1.3155695 1.9730347 -0.9850675 1.9895229 -1.0426357 0.83295274 -0.787216 -1.43805
4828 -1.6058404 -0.11449498 -0.7543997 -0.4953592 1.4627488 -1.2557927 -1.5083525 -1.2992318 1.16465 -1.7469223 -2.9028754 -2.2845075 -0.55423415 2.2970393 -0.7183055 1.0110917 0.14915028 2.9851515 0.54743916 -1.2604022 1.3140539 0.4735015 -0.21321039 -1.1525154 1.5617242 -1.2789208 -4.0597606 0.33820757 -0.20687841 1.0277692 0.39642102 1.79611
979 -1.089109 -1.509824 0.5000806 -0.0978934 0.77286464 -1.3244522 0.35730222 -1.2382432 2.040118 1.0144677 -1.4249526 -1.1159039 -2.662063 0.54328513 -1.5742114 1.8133497 0.13255212 -1.1906687 -0.22503026 -0.7024045 -0.19394103 -0.45562592 2.7516217 2.3082702 1.2089393 0.015019724 -3.6060052 -0.38177535 -0.40522274 -0.64290285 -0.46167472 3.7545774
1872 1.7973453 2.1592686 -0.10213439 1.519931 -1.5022361 -0.2690508 -1.1379281 -0.7906548 -0.22816958 -0.73852813 0.018289875 -1.209615 -3.0276585 -0.84321463 -0.20472106 0.26571643 0.3135774 -0.5166047 1.7291147 -1.1203731 -1.7717496 1.3037945 0.6630385 -2.7541506 1.4401914 2.7804668 -3.291252 1.3972236 -0.13798188 0.96095747 0.30413586 0.87769353
554 -0.31284076 0.2348954 1.3759596 -2.6278958 0.733555 -0.32033223 2.1951733 0.5602185 1.7575948 -0.7587995 1.5358061 -2.2370772 -0.08645723 1.0379916 0.49068376 0.03326538 -0.36334285 -0.104201086 1.6267706 0.30917075 -3.3862734 0.5330225 0.1932268 0.16248338 -0.7412874 2.0834973 -3.3262515 -1.4675004 -2.212095 0.9436045 1.4052991 -0.1784484
2496 2.8552346 -1.3891542 0.85611826 -2.2126026 1.5215436 -1.1926888 -0.76367223 1.2588339 0.23124248 -0.39848328 -1.8781067 -0.922373 0.48538375 0.23962063 1.5486462 1.6853318 -0.6385709 0.97013915 -1.2984709 1.4439999 -1.3705778 2.5565488 0.66125166 1.1923355 -0.742864 0.14916597 -3.757775 0.85535735 1.4996636 0.5854262 1.3198366 -0.9415158
2398 0.88510835 -2.0083475 1.2178476 -0.1550604 2.2361128 -1.2897528 1.9491999 2.0292635 1.0640378 1.4565408 -1.3817184 0.1826364 -1.4031351 0.5347684 -1.8734925 0.29468414 1.2014824 -0.10380443 2.1513817 -0.5327553 0.9199478 -0.9812209 0.9568198 -2.881285 -1.8663055 3.2407174 -2.5726652 1.4745557 0.29010695 -0.7222121 2.180635 0.89810306
3210 1.8679029 2.8993678 -0.95317775 1.7201246 -1.74525 -0.39088365 -1.0597144 -0.31128243 -0.82428974 -1.1319877 -0.56335545 -1.5957206 -3.7417753 -0.53989637 1.1875101 0.2151464 0.021640377 -0.7348524 1.3390709 0.20414579 -0.81948376 2.176006 0.13790879 -2.459096 2.0510314 1.7147115 -2.5635624 1.706405 -0.7303081 0.8322557 1.1570075 1.3473039
2776 -3.818837 0.94406515 1.2565342 -0.43016377 -0.2051237 0.78414035 -0.024142373 0.5274624 3.0554836 0.59774345 -0.10936577 -2.4562042 -3.2176623 -0.6162996 1.3216171 0.8620308 0.12268292 -1.4907115 0.4661918 -1.0536621 -1.5512193 1.0145447 1.4172778 -0.5557624 -1.2768943 0.99996024 -0.040103685 0.39077938 2.493182 0.39488977 1.7824019 0.58781075
1996 -0.04089021 -0.7434484 -0.6491151 -0.3280009 -0.4248452 0.50169086 -0.50609964 -1.093269 3.8496244 -1.6605195 -0.8000484 -0.528328 -0.009561716 4.57785 -0.6536767 1.7965662 0.6710909 2.190836 1.9370394 -2.143298 1.083759 1.1244202 0.42187256 -0.9072409 0.20989032 -1.0135704 -1.4461358 0.33220035 -0.8070684 1.3328465 1.6030333 -0.09455284
2982 -0.12959561 -0.24524318 1.7029164 -2.2428584 0.51544565 1.2028998 0.10020602 1.5205295 0.038807817 0.24039096 -0.7644002 -1.2738097 -0.60218674 0.96745986 -1.7713993 -2.4217653 0.41964164 0.4183749 -0.6928466 -3.6370444 1.482495 1.2008 3.4330974 1.8156754 -0.06985427 0.5863175 -0.1586362 1.2165664 1.2453737 -0.0008461148 3.0716436 -0.8670132
790 -1.1122733 -1.0265175 0.4839296 2.7259505 -2.6563046 0.23843671 0.0870385 -0.0069690803 -0.29492885 1.5128304 -2.4932573 -0.31711087 1.2304258 1.5232954 1.296532 1.2272298 0.3465923 -1.8114139 1.723521 -3.4797103 0.007631621 -1.0839262 1.1636668 0.032823108 0.19640662 0.0051492695 -2.9212556 0.5920098 0.6063961 -0.1846109 1.8878495 -2.7319312
78 -4.054572 0.41416994 0.18644689 -0.7289905 -1.08298 0.40143165 -0.8026688 0.6894605 2.4654212 1.2775154 -1.3175607 -2.452513 -2.7304876 -0.57495683 0.73236156 0.24754143 0.35644272 -1.1186811 0.70871395 -0.53080857 -1.3041327 1.76604 0.9472616 0.21947782 -0.84542894 0.7714082 -0.11929592 0.91682976 2.394285 0.46809244 1.7450131 0.57202446
1270 1.1997086 2.0597558 2.4739914 -2.963333 1.1941726 -0.9247757 2.3003607 -1.8549336 1.5511283 0.24331686 -1.7985809 -0.18433781 0.3991488 -0.09150157 -1.5324775 2.5269585 0.2829118 -1.7249502 -0.838802 -2.257559 0.2730586 1.4492792 2.8836966 0.61141175 -0.45220646 -0.7987711 -0.98155427 -1.3726096 -0.09501189 0.64690137 1.9262689 2.4067926
1093 3.1368632 -1.3878596 0.75944626 -2.2449584 1.5432688 -1.1691492 -0.792512 1.450029 -0.123818465 -0.17778099 -1.6925578 -1.0634874 0.5076822 -0.0751095 1.6582497 1.7497847 -0.57407385 1.166014 -1.5031413 1.6319726 -1.3543087 2.493677 0.5679676 1.424626 -0.64741963 0.046766482 -3.445949 0.92754954 1.73085 0.27771387 1.2812437 -0.8926734
3938 1.3859872 0.6709597 2.0277543 0.7765673 -1.9038144 1.8665237 -0.8098261 -2.3809896 2.7032113 -0.005230475 -1.8957852 -0.63785523 -0.8694642 1.2287321 0.15877946 -1.7757177 -0.1940079 -2.1168096 -0.094832964 1.5459799 -1.4779223 2.077797 2.800048 0.27279708 -2.4978411 1.2443287 0.1167618 -1.1049696 0.8299897 1.0139759 1.0498804 -0.4596475
2301 1.5195248 -1.5505891 3.1054585 -0.8423016 0.8037389 1.4934254 1.3624289 -1.2007368 -0.07237831 -0.18512294 -0.6312017 -3.0592449 0.12185279 -1.0777676 0.037686594 -2.1811457 -2.3119228 -1.3852696 -0.40330818 -2.2880487 2.0164118 0.12473744 1.484142 0.28887656 0.35015866 0.8196286 -0.22698954 2.361983 0.5879801 -1.2079017 2.0740573 -1.3610055
1260 -5.02573 0.09595751 -0.09783231 -2.5244853 -0.8853852 -0.7331304 0.427274 0.99150854 1.1346285 0.9482477 -2.0646338 -2.5453227 -0.72116065 -0.33900988 0.65434724 -1.0163212 0.73290807 -1.2270806 2.0251968 -0.038320046 -1.2931414 1.5104451 0.32674932 1.4614258 0.33061978 -0.17773935 -0.44931185 1.3894781 1.6022996 0.50843817 1.8033751 0.3479262
919 2.5505857 1.2666522 -1.072532 -0.042708997 2.271105 -0.21984853 -0.97414625 0.80100065 0.8522884 0.7514927 -1.1499201 1.08253 -0.020648379 0.6009598 0.9959527 -3.1023307 1.6881763 -1.0860307 0.46833616 -3.4014094 -1.5036358 1.6251647 -0.5447254 2.1793919 0.061999097 1.4655112 -1.0643909 -1.1010494 1.3959183 -2.1095312 1.3129354 0.566822
1048 0.5120736 -0.6889103 1.575451 -2.1932967 -0.5305596 0.7801351 -1.1793486 -0.55193996 2.384937 1.6902872 0.59951586 -1.1723987 -1.8195411 2.6599545 1.6010838 1.0933862 0.9485625 -0.59915984 2.0777535 -1.3461071 1.0012022 1.2790518 -0.112387694 -1.3697519 0.7907093 -1.5831858 -1.5630374 -0.35506526 -0.42996925 2.909123 2.097463 -1.3125907
3330 -0.71842897 -0.4972637 0.6507989 0.35538077 0.70577294 0.077592745 1.515358 -1.0251664 2.137829 -1.7178904 -1.1193696 -2.2254274 -0.23597948 -2.8817825 0.20436181 -0.7650189 4.061776 0.14219926 0.7769174 -1.3566252 -1.5474328 2.0530055 0.9827681 -1.0982119 2.69931 -1.1784002 -0.47115037 0.3309004 -0.17500035 -0.6290978 1.5338002 -3.0794656
2021 1.1468551 -0.75093323 2.1568108 0.83513737 -0.27463654 -1.1008892 -0.14983274 -0.029937549 0.48443303 0.5274444 -1.8551291 1.4956287 1.9135528 -0.33301386 -0.87111783 -1.0537606 -1.5553578 -1.3050295 2.6871598 1.7008303 0.105493456 0.3877298 0.20521773 1.9628959 0.82497907 1.0380381 -4.861607 0.4583072 -1.187628 -0.4601607 2.3702223 0.84510994
364 1.8754411 0.71172875 -2.2674763 -0.098113574 -0.17994983 -0.16081764 0.12853386 -0.4730654 0.9416766 -0.7150264 -0.98623574 -0.43035352 -2.567789 -0.6736537 1.4858534 1.8029392 0.7079727 0.19367704 1.6006894 -1.0807856 0.8190395 0.26796737 2.8233576 0.35860518 2.5555398 2.7571454 -2.6353753 2.7357247 0.30694368 2.3625815 -0.53720933 -0.27535054
754 -3.6932335 0.2082408 1.2851855 0.10578916 -0.5102681 0.8632142 -0.55471885 0.08057046 2.8533895 1.4948087 -0.7176463 -2.2543452 -3.336981 -0.25049022 1.7317054 0.63341856 0.5023577 -1.2455407 0.24237828 -1.1772068 -0.8582435 1.1601559 1.4123095 -0.47964475 -1.3206493 0.43438867 -0.958028 0.43644884 2.2606037 1.0980827 1.6576849 0.4491509
2203 -1.4268564 -0.5647871 0.4822484 -0.7085685 1.5968313 -2.1113849 2.957919 -2.708848 1.448687 -1.5212305 -1.2032244 1.5529121 -0.8496285 2.5752075 -2.3089614 -1.6807523 -0.3811803 -0.924474 0.9064397 0.47823504 0.25836402 2.1589432 0.7284994 1.2410332 -1.3030052 -0.89689106 -0.7261031 1.0006917 -0.6831903 2.6359289 1.4900585 0.51263016
1829 0.62213904 -1.9884938 2.1418717 -0.76860553 0.48392227 2.268948 0.75295234 -1.2479898 0.046181194 0.7870083 -0.24547058 -2.8927853 0.1659593 -1.1254634 0.07294934 -1.3600849 -2.5877404 -2.163423 -0.015623533 -1.769298 1.7233181 0.0051223645 1.0279198 0.67029846 2.2413301 0.22054526 -0.88821906 2.3804984 0.36886063 -2.0858915 1.5939019 -1.5082834
2913 1.5959071 1.9865863 -0.44869027 1.6150119 -1.5639539 -0.44931528 -0.7337217 -0.36646467 -0.37530544 -0.44348648 -0.2016227 -1.1331228 -3.1804233 -0.789573 0.5754517 -0.21868695 0.20185252 -0.61489886 1.3750857 -0.23135631 -1.3636074 1.5613694 0.02806021 -2.9574895 1.7247266 2.336564 -3.231601 1.6110134 -0.012626714 0.7194326 0.63948184 1.2619222
3422 1.9767196 -2.1981142 -1.3642354 -1.6159251 1.1737139 -1.4396648 -0.69306093 -2.638953 -1.0577165 0.3655096 -2.1623733 -1.0983932 1.2014121 -1.296979 0.7031777 1.4850652 0.4067941 0.6541712 0.9697053 -1.3759143 -1.2109638 1.9766744 0.851341 2.7604382 -1.3158063 1.2364978 -0.87042093 1.9535146 -0.27667522 1.3632016 0.016219975 -1.3983194
3561 -0.11191277 1.5042675 1.9959183 -1.1157347 1.8517383 -0.09757664 1.7431616 -1.8375818 1.1593845 0.07979562 -3.0558734 -1.9338641 -0.3758471 -0.31518096 0.7806858 0.9034652 2.5558472 -1.1111951 -1.6963658 -1.3334334 -0.52913207 -0.5778415 1.2204244 -0.9677143 -3.1908784 -0.35144034 -0.4591384 0.019538367 -1.8637522 -0.068058826 1.5420687 1.0878503
2972 0.7688085 -3.0366447 1.678691 0.81917495 0.6811836 -1.3019595 3.2843082 -0.3737667 0.46004784 0.7183259 -2.5629394 -2.2726796 -0.506127 1.4716082 0.73490274 0.1881575 -0.121501036 -1.0552604 -0.017876942 1.5154141 1.9821475 0.36504737 -0.7827564 0.1653579 2.3787303 1.7418445 -1.8892485 -0.0567459 -1.7240815 -0.85001934 0.24650024 0.72039825
699 -0.9629437 -0.112650976 1.308978 -0.6604895 1.0995413 -0.83305717 0.85439974 0.017960094 -0.38703585 -0.6259181 -0.53655404 -1.0318056 2.7065625 0.4733779 3.8948114 -0.6597864 0.9223106 -1.6610191 0.91028196 -0.49990362 0.020857576 0.51757705 -0.6900881 -0.34576502 -1.2793558 0.1994579 -4.3592415 0.06428444 0.63366807 2.0503821 1.330663 -1.2144912
3426 -1.2122871 -2.0383725 1.0687212 -0.9228024 0.44337505 -1.2026832 -0.32371777 -0.7485024 -0.06991504 -3.4484942 -3.7637703 0.7289582 -2.0801105 1.8024967 0.89317864 0.21323791 -1.0968735 -1.8684243 0.18198392 -1.4164802 1.1503954 1.0809209 1.4862816 -0.6759098 -1.5945259 0.9436764 1.0974406 0.7200724 -0.30207694 0.7118452 0.06319513 -2.6049016
2689 1.7345135 -1.5398259 -0.6832045 -0.053469848 -0.62659264 -0.92055625 1.4335321 1.0311925 1.3515637 0.28004238 -0.8003288 -0.49302882 -2.1855705 0.6388214 2.637831 1.5569961 0.6673224 0.2881921 1.7663887 -0.401277 2.3946939 0.81576025 1.8680423 0.101035595 2.492505 4.0927234 -2.08173 1.6067697 0.7844092 1.9293364 -0.64781517 0.04520692
3767 3.1863425 -0.27570045 0.12144511 -0.8823744 2.0384614 -1.0760393 -1.1014795 2.7851834 0.5587333 0.03958584 -1.4871459 -0.20255995 0.18785875 0.52076584 1.4454502 0.54223627 -0.2971842 1.027515 -1.6291424 0.22651859 -1.7508705 2.7247496 0.18168621 1.0730436 -0.8255487 0.37845412 -4.25653 -0.37574276 1.9490517 -0.5331893 1.4619857 -0.87843055
3941 -2.2422013 1.6434731 2.7031622 -0.36543676 -0.25193998 2.2530854 -0.9838822 -0.2380673 -0.10330725 -1.5331119 -1.9623212 -0.11370253 -2.3751018 0.46386757 -2.0488405 -0.56144696 1.7217745 0.76328236 -0.3610416 -3.3727229 -0.3639514 0.5791158 0.8960361 1.5601292 1.1285161 1.6538464 -1.569599 2.7876105 -0.7343746 0.92914486 1.028699 -0.70957637
2026 0.484508 1.0258836 0.2242169 0.28350216 -0.687255 0.09402154 1.9367454 -0.8400062 -0.5234889 -0.56018776 -1.7062376 -1.9756224 -0.5978369 -0.57308376 -2.3426206 0.858431 -3.2426617 1.7161047 2.8111537 -0.84513307 -0.3010217 0.6779347 1.6712546 1.2292445 -1.1320785 -0.7153387 -2.5073187 -0.5215456 -0.24229898 -2.507325 1.5260303 -1.2640786
2054 -0.8759857 -1.6186892 -1.8812082 1.2197305 -3.5421498 0.765256 -0.9610425 -0.6576377 0.70874655 0.6931066 -0.97875863 -0.78837717 0.02481451 2.7175171 0.6414986 -0.77458966 1.2591026 -2.5587895 0.47713414 -0.9592844 -0.71682423 -0.038582027 1.7727513 0.52060366 0.687713 -0.30468693 -2.5822554 -0.104130104 -0.17783989 -2.32408 1.1499051 -1.8444912
3548 0.6463822 -1.961645 2.5314507 1.2759081 -0.27615663 1.1239874 2.2406182 -0.31836426 -0.7206233 -0.5038278 -2.614991 0.56571424 -2.4036994 -0.73000133 0.7610382 -0.585712 -0.25145197 0.91138154 1.3495439 -0.7628957 0.4999569 0.6722306 1.3945508 0.80058897 -2.054496 -2.0769534 -3.7329295 0.091494635 -0.43719754 2.7641833 -0.12594488 0.28589824
4346 -1.022912 0.90723777 2.2895763 -0.6159857 0.20594132 0.4257352 2.3927677 1.9101735 -0.21102169 -1.1902709 -0.58117294 -2.511732 -0.7027875 1.6164677 -1.4836445 0.7523609 0.22159985 -0.811841 1.1157558 -0.5481282 -2.413924 0.40525094 0.8538439 -1.6928205 -1.6502444 2.9332666 -1.5264659 0.134623 -0.44120833 -1.6553845 -0.6833283 -3.8698735
2503 0.6007208 -1.9155372 2.2630944 -0.2335772 1.2383356 -1.1977758 3.2751086 -1.2360904 0.64575195 1.665386 -2.9473412 -1.6016724 0.12214533 1.1351638 0.560614 -0.7337814 -0.009977603 -0.7570987 -0.28596234 1.5872606 1.279763 0.6399736 -0.5393933 0.83007693 2.404114 0.7497519 -2.0075524 -0.08185409 -2.0629215 -1.5299385 0.54180974 0.4980831
1271 -2.5409546 -1.1464012 -0.8770057 -0.39749074 1.0587782 0.66651565 1.6994251 -2.1178317 -0.4203716 0.45366427 -0.41731155 -0.45503244 -1.7207632 1.1014829 -0.12263614 0.7745279 0.9341973 0.21125586 1.8749788 -1.8298609 -1.3938487 2.9404836 1.228372 0.28923818 -0.053305246 2.8151126 -0.8525177 0.99932307 -1.4493622 -2.262818 -2.0029256 -1.1560906
1041 -2.040404 1.7394652 2.7065594 -0.09230602 -1.0851209 1.5772312 0.13408466 0.11049697 -0.38775486 -2.5900984 -2.2750485 -0.3225832 -2.3964336 -0.3692698 -1.9370162 -0.18817838 1.9298238 1.2010393 0.38814822 -2.4700208 -1.1706961 0.4607175 -0.17927821 0.80391127 1.3047525 1.263898 -0.74790376 2.7818446 -0.48100182 0.6436813 0.6753088 -1.5772263
4610 1.5786718 -0.6816069 -1.3167814 -0.0028948626 -0.44936538 -0.58151984 0.6502113 0.553038 1.2088605 -0.28981525 -0.4244126 0.1255978 -2.1887875 -0.727859 1.7097279 1.8214276 1.0903022 0.14550404 1.826639 -1.2815052 1.4205436 0.3809152 2.4785078 0.0063319537 2.2675333 3.251611 -2.5044808 2.42239 1.0264095 2.6279707 -0.5896438 -0.08217034
4446 0.5849386 -0.70212245 0.2179659 -0.80149543 1.6172354 -0.69171965 0.9974932 2.4410224 1.0307556 1.2203808 -1.269003 1.1461323 -1.4231089 1.2812222 -2.9128869 -0.6105134 -0.25787824 -0.61359334 1.6305581 -0.10383636 0.09356301 -1.460775 0.08558712 -1.9634619 -2.280195 2.801395 -3.097137 1.577753 -0.34121174 -1.5894741 1.8871336 0.90626806
1805 0.23351544 -1.1225352 2.419895 0.4642541 0.35480186 -0.57316166 0.6732878 0.015408175 0.66464436 1.1098515 -2.6132092 1.3468 2.1805696 -0.1852654 -1.2078826 -1.106136 -0.8261197 -0.57077116 2.4967449 1.6917728 0.10040892 0.7969804 0.026609648 1.7041547 1.6202295 0.7481218 -4.6758294 0.42720214 -1.0902345 -0.3077067 2.557222 0.058739647
3266 1.889887 -3.0053897 -0.56410354 -0.38575357 2.0226908 0.5531928 -0.95184183 -0.99614465 -0.6697326 -0.6116591 -1.9751142 0.056858998 -1.3616724 2.1887941 -0.2951452 2.578755 -0.25354263 -2.7409186 0.3453058 -1.6760579 -0.4960048 0.18363157 -1.8131543 1.3250815 -0.61544377 2.041376 -2.0916414 1.3614959 -0.7124827 3.4336493 0.3773293 1.6267502
3202 0.06966358 2.1716774 -1.0767426 0.33319974 -0.3260197 0.55825126 -1.2742268 -2.4374695 -0.6094477 -0.24280484 -1.7522427 -0.37391868 -1.6783384 -0.33498165 2.9762192 -1.7562779 2.0717275 -0.7351688 3.0679176 1.4096401 1.1948627 3.4211047 0.97144955 0.9987591 -0.41960615 -1.433712 -1.9643273 1.0065975 -0.73050267 -1.5858405 1.2349342 0.9544675
1817 0.60539883 0.17319152 0.9392298 -0.9095727 0.19768165 -0.13069873 0.33354163 -1.0693709 0.34282133 2.9920192 -2.1684232 0.17602211 -0.73847324 -0.47245204 -0.36073205 -2.128409 0.70183825 -0.2927821 1.0437127 1.1924243 -1.2691302 1.044804 0.0821703 -3.0805979 0.9967035 3.4179096 -3.6408231 -0.2235428 1.9907901 0.01638358 -0.20228238 -0.9763994
3880 3.1423893 1.3631952 -0.3888453 0.016432645 2.2243328 -0.0850485 -0.9482068 1.4291306 0.4283333 0.6107555 -1.3964537 0.87541986 0.1234501 0.7803611 1.4378867 -1.9529436 2.3602128 -0.52313334 0.6520283 -2.9999151 -1.259613 1.639976 -1.476199 2.343041 0.54749334 1.1330087 -1.5713191 0.3519689 1.9520884 -2.534077 0.9883011 0.77057856
1989 0.19084108 0.037803683 -2.2540765 1.2453821 1.1738665 -1.3942837 -2.5956192 1.1984981 0.9016606 -0.32653823 -0.583945 0.66225636 -0.9543857 0.59073037 0.0892569 -0.24535412 -1.3323145 -0.5063573 -0.8498432 -1.3662682 -2.4425907 1.7751225 1.1259677 0.056853358 0.0027602671 1.2844949 -3.7346568 -0.14093445 -0.9398781 0.6412196 1.5428938 -3.8594553
1634 -1.3829622 0.5644535 -1.1274921 -2.799158 1.3430126 0.81764317 -1.2539587 0.1926129 0.34464967 0.19314273 -1.6628164 -1.1222156 -0.8075216 0.56899655 -0.36109778 1.3541232 -1.7079301 1.7993203 1.5828577 0.21420182 -1.2672672 0.33766735 1.9903319 0.8702287 -0.52874005 1.6067779 -4.5486207 1.2276498 1.1008196 -0.8482101 -0.5878305 2.030984
1328 -0.26411238 -1.3408891 0.6563069 0.19351777 1.9374324 0.32017285 0.86209184 -1.2517577 -1.7215508 -0.9016264 -2.3510554 -1.5914034 -1.3166943 0.8726044 2.4454627 1.3405393 1.9794621 -1.3346843 -1.5863168 -1.2350888 -1.69801 -0.3842892 1.3394581 0.10604332 -2.0203733 0.11273436 -0.19193213 0.9235461 -1.0804772 -1.5608974 2.3411121 2.3289332
4263 1.030029 -0.59193337 -1.957665 -1.116653 -1.1640106 1.5903343 2.5997655 1.2707789 -0.46980387 0.06719655 -2.744258 -2.897727 -2.6060905 0.4952777 -1.1362464 -1.7726835 -0.31273106 -0.367678 -0.1308924 -1.922848 -0.8041829 0.118884906 -0.9032268 0.06146561 0.42165655 1.664056 -0.17775805 1.4132829 -1.215378 1.8321759 1.6112407 1.4011778
102 -0.34669495 -3.779622 -0.48848993 0.18696839 -0.28777003 -0.06559389 -0.046954397 0.951826 0.1334594 -3.8398173 -2.468841 -2.1314082 -1.335223 0.8538013 1.5555869 1.8356798 -0.34927762 -1.8024267 0.50751466 -1.550888 2.7376819 2.3105395 -0.052770827 0.28263092 0.085133724 1.3070668 -0.46360725 -0.33997685 -0.4286905 0.92155164 0.7382452 -1.6111495
4857 -0.81218433 0.061589394 -0.2910989 -1.7908916 0.79470664 -0.8746214 -2.1752596 -0.9722222 1.3781791 -1.5950598 -2.5141227 -1.6585771 -0.43900225 2.0952523 -0.49463254 1.0615798 -1.4731565 3.7296684 0.8750033 -0.28881308 0.59888536 -0.6099142 -0.20510411 -1.50934 -0.2701926 -0.85234684 -4.688332 1.1563814 0.055232048 -0.8215638 -0.06661992 0.99141353
1760 -1.2444705 -0.22103608 1.8783848 1.9899358 1.3061607 -0.7373986 0.43584406 -1.1388849 0.9837489 0.9985952 -0.23595427 0.14908591 -1.7071248 -0.93245244 0.75982654 3.3971262 -2.253214 -0.9795916 -1.241597 -2.5620675 1.391866 3.9386585 -0.4903811 -0.1899284 0.8240877 1.1367489 -2.835399 0.9468078 -0.908199 0.43110478 0.83536184 1.5228419
2943 1.180757 0.046216547 0.7156944 -2.4030254 -0.12784263 1.1894083 -1.5220933 -0.025754115 0.8361987 1.7981017 0.32035702 -1.348796 -0.59202915 2.7974954 1.0135311 0.6381275 -0.13483188 -0.5272793 2.5340846 -2.0864308 1.5755327 1.5166972 -0.7695291 -2.2290347 1.0896807 -1.6693703 -1.7803749 0.6244937 0.20308512 2.8364046 0.33389428 -2.2359116
3721 1.5165489 0.051248714 -0.8248907 -1.1077163 0.35850805 1.6393397 1.1138289 -0.13055198 -0.8794471 -0.35462067 -2.7275734 -2.8716424 1.4030517 1.2143279 -0.228923 -0.58648974 0.16028377 -1.0151782 -0.7485425 -1.4376943 -1.6529633 -0.64283466 -0.6935699 -0.12286866 -1.6972699 3.083443 -1.8290836 -0.10827319 -0.0025923918 2.605759 1.2136416 -1.0589381
495 -0.51857764 0.84715885 1.8386927 0.58517504 -1.9421343 -0.6491833 1.80852 0.00323448 1.2505909 0.30644095 0.15189466 -1.2865515 -1.6388143 -1.3473073 -0.46521202 -1.067671 0.2016274 0.58100784 0.41809332 -2.5206618 -3.4559782 -0.26222992 2.1088305 1.0665379 1.0642191 -0.6233767 -1.6344588 3.7057514 -0.42645 -1.7208263 -0.69292194 -0.81463486
1416 -0.72574025 0.9804358 1.3949952 -0.07625373 0.11069023 -1.9944346 0.90257764 0.34179464 -0.3337303 -0.95044637 -3.464602 -0.33409527 -2.4214072 4.37442 1.1851947 0.2817352 -1.5928265 -1.0896872 1.2497191 -1.6835685 1.6766301 0.07796434 0.9240268 0.14127529 -0.79574126 1.8875729 1.3990917 -0.74280185 0.8744944 -0.010221325 0.90892327 -2.381517
3574 1.1285685 0.34501413 0.46968034 -1.657119 -0.3783344 0.5430634 0.30670434 -3.7315037 0.5814595 0.65710926 -0.8165806 0.8638654 -1.3254689 -1.2234291 -0.8602257 0.21608663 1.1618586 -1.1416358 1.286148 -0.80825394 0.61544824 3.590397 -1.2638754 -0.7224149 -1.7880052 1.3419231 -0.5533481 1.9487251 1.6027778 -0.14690702 1.7504205 -0.5335989
766 1.4446045 2.4838116 -0.5750166 -0.38930827 -0.77567077 1.0211586 -0.0033656526 -1.3947552 0.7255451 -0.020868456 -2.373511 -1.7271328 -1.4202195 1.7746264 2.8577836 2.0201788 -0.93014264 0.21965064 2.475416 1.3690511 1.0826836 1.2369499 2.4943254 0.3154206 -0.28722653 2.5222101 0.40866825 -1.2603955 -0.88621855 0.5483001 1.1674838 -0.21051471
159 1.4724599 -0.67339987 -0.38724604 -0.20511183 -0.16164118 -0.35308293 1.2141616 -0.86769986 1.4286174 -0.5259162 0.47792703 0.6601826 -1.4772438 -1.4196911 0.14779024 2.6114397 2.315181 -0.11991861 1.843857 -1.3203598 1.374075 -0.6090463 3.1791284 0.33662772 0.41433662 2.7706497 -3.331858 1.6425855 0.03592795 2.3941498 0.02701236 -0.17866321
830 1.644232 0.044862673 -0.9743455 -0.9833345 0.64013994 1.7543778 0.96570486 -0.2005124 -1.1209213 -0.5336446 -2.5513365 -2.5723896 1.342994 1.2667924 -0.060221437 -0.20688707 0.21437404 -1.0792565 -0.70956564 -1.199694 -1.5699005 -1.0490572 -1.0078157 -0.08798644 -1.7054036 3.10517 -1.920445 -0.16500364 -0.046532694 2.9750485 0.73077476 -1.0305711
350 -1.1944542 -0.13339214 1.3157499 -0.83868384 1.1923708 -0.9915579 1.3243856 0.09563844 -0.45215777 -0.7007372 -1.1256704 -1.1384661 2.4083738 0.19017954 3.6811743 -0.6064635 1.0984216 -2.1386387 0.5666813 -0.72397184 0.34742907 0.119204454 -0.6766241 0.108184725 -1.1367218 0.46055263 -4.5872564 -0.2600753 0.59099305 1.9456908 1.6990207 -1.3014877
353 1.2002053 0.116295554 -0.6223312 -0.5577472 0.22104447 1.2029743 -1.3627696 -0.9344598 0.111185156 0.2504081 -1.2766279 -0.20947705 -0.4188216 1.6673497 3.5156913 -3.7046833 2.0374022 -1.4093055 1.8481699 -0.668969 1.1982152 3.6565423 -0.39968178 1.8255789 -2.0156505 0.7376315 -0.26716262 0.27246118 -0.0045721554 -1.319681 0.8105198 1.7538128
1499 -0.3239641 -0.73121023 0.28314707 0.8271742 -0.9750139 -0.94064575 1.3865483 -0.45712513 2.0634503 -0.9973883 -3.5158935 -1.0785565 -1.0960902 -1.5272948 0.07261808 -2.136667 0.15894996 0.67179996 1.7276077 -0.7746819 0.681945 -0.074423596 -1.8408196 0.63900703 -3.0706472 1.8035723 -0.24347605 2.1816611 -1.295105 -0.3593394 1.8877764 -1.4874313
263 1.3672067 -1.8286275 0.45455635 -0.17587338 0.05028384 -0.65139663 1.7998916 0.3961291 1.4362781 -0.18297613 0.7008106 0.56977814 -1.2651014 -1.3114455 -0.37700403 2.3388836 2.7412503 -0.31614867 2.2028317 -1.6762699 1.587346 -0.3414574 2.6796563 -0.47947982 -0.82368046 3.0662744 -3.2459784 1.5288131 0.8318124 1.947486 0.7016223 0.43120992
4563 -1.1089897 -1.6616416 -0.2157269 -1.1924525 1.9084699 -0.53093576 -0.5569168 2.1369255 -0.115108036 1.3043807 -3.8233035 -0.3539754 -1.6769558 1.2296255 -1.0490428 -1.4336537 1.2588302 -0.13052504 1.9858062 -0.90249074 0.7322725 2.7283716 1.1455681 -0.07178909 1.2383171 -1.7312989 -1.2262603 -0.85330003 0.6143689 -0.26371592 -1.8627274 1.2429631
4650 -0.78267926 0.7240092 -0.10982534 -1.3234558 -0.24131644 -0.19717373 1.0490599 -1.2438755 -0.11461594 1.5747586 -2.2836921 -1.2230468 1.3926942 0.46599272 -1.7068063 1.529884 1.9198025 -0.67668295 1.5664219 0.23663929 -0.5627209 -1.2355663 -1.8764262 2.6620283 0.21611236 -0.32793865 -3.666129 0.6290664 0.21763968 -2.2216895 0.8998989 -2.1508517
3410 -0.46403047 -0.08893038 1.4396046 0.7132041 -0.8448038 -0.10973925 1.1374633 -0.18732947 1.3700565 -1.295911 -2.980355 -0.5946172 -0.86145324 -1.1533568 -0.13097343 -1.9960879 1.2128433 0.6024393 0.58343923 -1.0801172 1.2929538 -0.1941114 -1.2760406 0.5323174 -2.7824392 3.0126164 -0.24448393 2.7737856 -1.0865811 0.317318 2.4246352 -1.4273279
2003 -0.10825201 2.1613328 -0.96610516 0.27333674 -0.24990007 0.103179485 -0.8542131 -1.995228 -1.3276607 0.18048106 -1.4053082 -0.4859408 -2.6081884 -1.0290928 2.6023567 -1.04447 2.4124076 -1.0482746 2.7146025 1.4615401 0.92920583 3.0902088 -0.11291938 -0.3825097 0.8586082 -0.5312901 -2.110579 1.6565697 -0.82591885 -1.489995 1.610708 1.2471502
2989 -0.36663958 0.3756169 2.3185613 -1.2993497 -0.10055289 1.1439422 -0.73283273 -0.97649175 0.30711028 0.17340466 -0.1554836 -2.2036533 1.6151022 2.2172709 2.8601043 -1.1362325 0.9547314 0.6045888 1.9103228 0.4937855 -1.1426833 1.7814809 -0.39792138 -0.7052159 -1.7295129 0.62894005 -3.138261 2.527153 -0.5111362 2.9365835 0.68596333 -0.43948257
4155 2.9380448 0.5975271 0.13939458 0.17300731 1.2744635 -2.3634498 -0.8787486 1.4507707 0.0776926 0.5973156 -0.8450429 0.14934486 0.9532117 0.78120565 1.6820583 0.7030421 1.7670087 1.2522734 0.711157 -2.6654756 -2.1247718 0.8863029 -1.3985868 2.0132246 0.40535632 1.5009491 -2.194947 1.6979924 2.3682113 -1.935822 0.3544589 -1.0573438
2201 -1.6496778 -0.9419367 0.103617266 1.8580786 1.5105424 -1.8591412 -0.3953432 -0.015866445 -0.8082616 -0.53584695 0.32670814 -1.3011454 -1.532623 1.4577544 2.7890193 1.4721214 -0.6479176 -0.9383524 -0.7803509 -1.2275778 -2.6085222 1.8091812 -0.0638575 0.90439934 -1.0373063 1.6118914 -1.6361321 1.1926923 1.7246804 -1.77741 1.6016407 -0.7776205
466 3.1356921 1.2387148 2.1823902 0.5507037 -0.056029335 -0.64913327 1.7102541 -0.1322821 3.0541637 -0.33424243 -1.9714497 -1.2102029 -2.4282463 -0.12879603 -1.5382922 1.9474902 -1.8428489 -0.82384336 0.6167128 -0.22877924 -0.8788377 0.39398193 -0.2862444 -1.4570024 -1.8695229 -2.141034 -0.9395311 0.44803864 -0.80668736 -1.775886 1.3707178 -0.6402929
1215 0.22326687 0.2400991 1.0295149 0.54288894 -1.0446078 -1.8199916 2.1737895 -0.17562602 0.71173936 1.034488 1.321254 -1.7724637 -2.7912147 -0.88546836 -0.34525198 -1.7534342 -0.75990456 -1.030112 0.9864788 -1.3049754 -2.6288254 0.17732954 1.6324832 0.82637477 0.81605375 -0.751422 -2.5409598 1.786274 -0.6664299 -1.7214625 -1.3086923 -0.28690147
3586 0.0016568662 -0.7718277 -0.3922657 0.1507014 -0.78810585 -0.30562997 1.2990098 0.9391886 1.6869941 -1.4350582 -2.8711941 -2.526469 -1.1539927 0.9316464 2.1527581 0.8870109 -1.3913542 -1.232055 1.2048624 -0.2727189 2.505651 1.6215284 1.0552461 -0.75580066 0.11417314 3.718411 0.5766045 -2.9028623 0.4792949 -0.37169522 -0.5749758 -0.5588024
1988 1.0032388 -1.5694566 0.30503768 -0.9195306 -0.5458618 1.15793 -0.6222585 -1.7260085 4.8116508 -1.9018828 -0.4988835 -0.24820721 -0.77060914 5.0542164 0.67830896 2.183451 0.22235732 1.7756925 1.1037797 -2.007087 0.6417298 0.016708553 0.303295 -1.1776153 0.24414739 -0.6312732 -1.7020909 0.7565531 -0.9841137 0.13811284 1.2039142 0.23032619
1015 1.1395457 0.32439777 -0.5840865 -1.3762598 0.67322946 -0.41095948 1.9977113 -1.524672 0.26643568 1.1206658 -2.9998648 -3.0868556 -0.8099722 0.37974873 -0.24096543 2.1624732 2.2925587 -0.6922634 0.5094421 -1.5816981 -1.6890843 -1.6927302 -1.8922831 1.2581078 0.93104845 -0.36058858 -1.835704 1.0102253 0.12379291 -2.844421 -0.29369277 -2.2668335
749 -0.8294481 -0.12934576 1.5488553 -0.551133 -0.3640645 0.12471048 0.7133564 -0.8312691 0.19170082 1.534427 -2.4677413 0.8882771 2.456748 -0.4186311 -1.6140072 -0.66925484 0.62603116 -0.1552294 2.108393 1.6815269 -0.40874305 0.8840187 -0.8947311 1.7159002 1.873891 0.86054397 -4.5356536 0.18524194 0.0032196227 -0.7066527 1.5629572 -1.1856606
822 -0.41453147 0.63305634 2.030581 -0.9286732 0.63026404 0.43747544 2.2618656 1.4785368 0.4763833 -0.99505013 -0.52036923 -2.106759 -0.47627044 1.9003682 -1.2848866 0.88133895 0.15744524 -1.1117914 0.9562266 -0.19464013 -1.8183805 0.5170488 0.9777343 -2.029355 -1.5988584 2.7090404 -1.6920725 -0.37862512 -0.39493364 -1.8166095 -0.3501395 -3.5560367
4779 2.3684092 -1.7795475 -0.87398845 -0.15548293 1.8516285 1.0781922 -1.0722593 -1.430148 -0.23872271 0.877631 -2.2415917 -0.8268791 -0.45981285 1.865729 0.08509265 1.8242534 -0.8566121 -2.753416 0.010529194 -1.7913914 -1.2390832 -0.14092076 -1.326495 0.99605167 -0.9631514 2.1579282 -1.3919314 1.1866289 -0.77648723 3.4503655 -0.28585148 1.5338268
3026 -1.0699893 -1.5481589 0.22057207 0.77864 1.5557742 -2.4055567 0.24475811 -0.06949876 -0.7251584 -0.09057518 -0.23632228 -1.3008845 -1.177855 1.9771041 2.8925447 1.0545114 -0.025485758 -0.2125094 -0.39900494 -1.4375713 -2.983109 1.4108887 -0.3348194 0.8596629 -1.0170321 2.116592 -1.1785928 1.0517892 3.1203284 -2.3283198 1.6005028 -0.43259352
3057 1.5554268 -1.5308241 2.3880246 -0.89135253 0.62518543 1.372533 0.9070813 -1.3858315 0.11011138 0.30516133 -0.5694714 -3.0132418 -0.0004462215 -1.3543448 0.16540541 -1.8220562 -2.339611 -1.913586 0.018628212 -1.3663334 1.5783546 0.028624525 1.6160574 0.14910269 1.426416 0.15688942 -0.4161306 1.84814 0.6443416 -1.5913453 1.5559087 -1.2960411
4657 1.2135704 -1.5434582 2.3918204 -1.6261604 0.7433917 1.559886 0.81327254 -0.66633564 -0.14388664 0.59800166 -0.5453411 -2.9137394 0.08277282 -1.0317171 -0.18499321 -1.8874841 -1.9430299 -1.7179815 -0.07094763 -1.7118552 1.764989 0.39021105 2.0732198 0.6770523 1.3274381 -0.11100473 -0.05708208 1.7192734 0.96659505 -1.3440247 1.7295858 -1.2690524
3952 -0.6397072 1.398569 0.65113705 -1.9181424 0.018248772 -0.6288267 -2.7618823 -0.787016 0.9241742 1.8674448 -1.4254808 -1.7634574 1.4893154 0.7129994 0.73415256 -1.9991003 -0.25120732 0.80882764 2.1638978 -0.8883083 -0.9873252 1.2791728 1.2829584 -0.9186802 -0.70498174 -0.04995788 -1.2401962 3.3892908 -1.9852179 1.2636503 0.47399443 0.069097504
3546 1.2743199 -1.5442505 1.0025402 0.39224792 -0.32895687 -0.5273644 0.9879415 1.5477649 1.5749565 1.0281845 0.116110034 -0.2597228 -1.0915737 -0.9641869 0.7376757 1.3625755 1.9211733 0.42154157 2.989076 -1.1834632 0.9947146 0.77490973 2.1520436 -1.6021737 0.73266125 2.662681 -2.7264292 2.2253273 1.5920511 2.2497258 0.85218596 1.064984
4128 -0.4107768 0.4716458 -0.02161941 -1.2050904 -0.58101135 0.5024869 1.3168228 -1.8249332 0.18019632 2.1539621 -1.9562408 -0.16985175 1.2748286 0.73257893 -2.650666 0.7243316 1.4479167 -0.8438846 1.6671594 0.22098753 -0.4297067 0.05212294 -2.4979117 1.4888939 -0.04582042 0.8505838 -3.9636567 0.82772505 1.4794066 -1.6834931 0.54414046 -3.2989721
2089 2.059887 -0.88373834 1.7739075 -2.8106987 1.0567851 0.72477853 -0.38274342 1.2590351 0.7112351 1.4383153 -1.4486942 -2.6387303 0.6629572 -0.24140792 0.029198278 -0.46554512 -1.705806 0.014577304 -1.6885676 1.4363325 0.074661925 2.2454991 3.5538955 0.89886737 0.55427694 -1.9996707 -1.1995045 0.84320015 0.882785 0.14265846 2.0590656 -2.6061525
4635 1.0087973 1.883614 2.4498124 -2.220821 2.4263628 -0.6977901 2.1708536 -1.6415403 1.8180199 -0.5036443 -2.6824915 -0.98050994 -0.5983218 -0.50414723 0.19501084 1.0840595 1.6505167 -0.69322485 -1.3252839 -1.7508793 -0.31620574 0.05239707 2.4289432 -0.5348865 -2.6196573 -0.650908 -0.7949635 -0.62886316 -1.2784723 0.49236116 1.6340922 0.9949467
4423 1.0132881 2.1463416 -0.26971498 -0.4765512 1.076418 -0.8812288 0.7250108 0.7682894 0.15352361 -0.75856984 -2.3117783 0.022322945 -1.395085 3.282862 1.0579273 1.7790647 -0.35336313 0.4133217 2.2220035 0.95762694 -0.9096692 -1.6552458 1.9332477 0.74486756 -0.0033753347 1.4533105 -0.3641679 2.088295 -0.17361411 0.12358637 1.9221921 -0.79785675
1187 0.12123944 -0.19217297 -0.25700814 0.72262883 -1.7704028 -1.4188164 1.3721845 -0.49796718 1.6269888 -3.013747 -3.3993592 -1.0536793 0.50333065 -0.76177025 -0.48364767 -0.5978644 0.13754393 1.7601666 1.9490753 -2.1339586 -0.6516922 2.0312626 -1.9189328 0.19311206 -0.48530534 -1.1150488 0.26779452 0.5553844 -1.9835242 -1.476894 2.4360838 -1.8871502
2875 1.0008789 1.4833212 -2.170116 2.238399 3.031394 0.04899131 -1.900034 0.30770338 1.7344484 0.09409232 -0.6394727 1.9201156 -1.4893782 0.48726556 0.36333963 -2.524791 0.55728734 -3.0012238 0.6279321 -3.2835615 -2.128506 1.3924052 -1.1038891 1.2584103 1.20596 0.78889585 -1.4176674 -0.78416014 -0.33752427 -1.437482 1.2780817 -0.46473712
4599 1.0544394 -0.26905668 0.68739957 -0.0031661433 0.5264811 -1.9903301 3.497463 -0.24423492 -1.2911451 0.25919503 -1.9320549 -0.2843819 -2.3467965 1.1588913 -1.3953897 -1.8698896 -0.5344526 -1.1477528 0.28326863 0.7281903 -1.3111115 0.15431029 0.18768726 1.8724226 0.6632832 -1.8902537 -1.8457702 0.90104127 -0.50751483 2.7123852 1.590312 -1.2069526
2257 0.7070608 -0.3938001 -0.0056394767 0.52828777 -1.6607647 -1.1354793 1.7141745 -0.56031674 1.6337738 -2.5972314 -3.7083437 -1.0953288 0.300555 -0.52445036 -0.7708722 -0.013856583 -0.7950196 1.3637286 2.2812896 -1.5034424 -0.47269028 1.8589686 -1.8363532 0.5644971 -1.3805261 -1.1634235 -0.21942018 0.13840564 -2.1393492 -2.1999488 2.1991258 -1.3464979
3105 -0.27106482 -2.4342616 1.2507335 -1.5970098 0.97344446 2.948438 0.27570516 -0.3172741 -0.08190333 1.5435827 0.02154411 -2.639447 -0.056574505 -0.20149939 -0.29029793 -0.73094416 -1.89738 -2.0629184 0.13966754 -1.8477288 1.8067521 1.0742614 1.2211837 1.460351 2.1586282 -0.21971743 -0.87292767 2.0404003 0.45539254 -2.0650234 1.4996046 -1.2321407
503 1.1522217 0.14755006 0.63967645 -3.3729248 1.0520656 0.4909616 0.8379994 0.26058882 0.27394894 -3.378038 -0.932768 0.21342185 0.2588754 -2.205322 0.73661697 -0.6794182 -1.5614434 -2.106515 1.1151586 -0.39652294 -0.66105586 1.6054634 -0.10276871 -0.7703294 1.9049474 0.8237112 -1.6658871 2.4098492 0.6460016 -1.5040671 -0.31220827 0.17063498
4217 2.834271 -1.3448437 1.0348251 -0.6156441 -0.5269378 1.0906243 0.09098927 -1.9153196 3.9902422 -2.2731538 -1.4183195 0.2675775 -0.9817114 2.5431917 1.6367875 1.1775215 0.27401912 0.5181336 -0.405326 -0.25345418 -1.2492129 -0.3435049 0.009484303 -1.5278171 0.5542851 -0.20933583 -2.190852 0.9613102 -0.8881877 -1.8428435 -0.18571858 -0.6472645
4273 -0.46175358 -0.48619434 0.39992946 2.8100865 -2.901883 0.055570465 -0.42908123 -0.48174962 0.31352666 1.4518349 -2.1708806 -0.05019183 0.9888411 1.602837 1.3118265 1.237496 0.5421605 -2.711485 1.3901538 -2.5425675 -0.41213447 -1.1247959 1.1521646 0.3604591 0.20783791 -0.0774816 -2.4452949 0.236506 0.6942311 -0.41871595 1.3821445 -2.7031767
4774 1.814002 0.6357519 -0.64227843 -1.478665 0.11254079 -0.8769394 1.7170612 -1.5045637 0.35359314 1.6752828 -2.3707664 -2.3111236 -0.3342829 0.23040518 0.11348594 2.0106277 1.9537123 -0.75814223 0.094650805 -1.7802111 -1.5892982 -0.29283348 -3.4127626 0.88222164 1.3389747 -0.720128 -1.3038522 1.4894108 0.56011623 -1.9963851 -0.17418534 -1.9525687
964 0.53271794 0.05545437 0.23551756 0.4342928 3.876135 1.2539215 -1.920713 -1.3664126 -0.25842452 -2.6735396 -1.5394278 -1.8966936 0.11619898 -0.011167343 0.9280195 0.9344364 0.5250643 -2.3352962 1.9000322 -0.12598841 -0.6024152 0.03946022 -0.05798141 -0.97464764 0.31403312 -0.7379449 -3.4639509 1.0132254 1.188083 1.322943 -2.611766 -1.8161622
1752 1.6749827 1.0902805 1.1556895 -1.9204463 0.2876761 0.042697053 1.0987328 -1.2382276 3.6922004 -0.09789309 0.6260381 -0.6671596 -3.0746188 1.5272608 0.42198873 1.190403 -1.4573799 -1.3891902 -1.0588938 -0.4229347 -0.25399512 -0.2579193 1.0366437 -1.083762 -1.2178254 -0.34634042 -1.2865963 2.0234282 0.79918027 -2.2182596 1.7647952 0.19019662
3170 0.86118853 0.6386027 -0.39408672 -1.9011868 -1.077687 0.83494306 1.7725052 -3.0516083 0.4660474 1.9635758 -1.3573809 1.2430946 0.24923104 -0.3914813 -2.2570424 0.035165653 1.104156 -1.0995706 0.61053514 0.0653014 0.062467005 2.6801677 -2.3015072 -0.2241455 -1.1988031 0.8595048 -2.565114 1.355452 2.1689355 -0.88705945 0.9744658 -1.8896462
2818 1.5603064 0.8290706 1.4384207 0.8594864 -1.9247092 1.9766189 -0.9133564 -2.7964785 2.1311624 -0.15788645 -1.4227004 -0.82056874 -0.94908196 1.1667985 0.8979493 -2.325346 0.2854432 -1.7628545 0.035136428 1.3711722 -1.0562145 2.6220882 2.382202 0.81012666 -2.6250386 0.6757352 0.067616425 -0.64403373 0.524266 0.8440336 1.2611591 -0.03584496
1540 2.0794141 -1.5558417 -0.8258542 1.4673074 1.0750828 0.035439786 -2.3821993 -1.5134615 0.93128735 0.8790256 -1.4505835 -1.3693854 0.7930871 0.20063028 0.4238773 0.09071127 -2.207405 -3.8127933 1.3069605 0.18629134 -0.41233987 0.0048128064 0.16769552 0.90473413 -2.1257377 -0.95410234 -2.3602352 1.9947681 -1.7341056 0.9271218 0.2064632 0.6749179
2412 -0.37398815 0.73957264 1.2716639 -2.4886286 0.4561817 -0.2129275 2.2827866 0.4737322 1.8445628 -1.0460922 1.0461875 -1.9724113 0.16220833 0.8959722 0.704371 0.1478304 -0.40442416 0.4631412 1.7974613 0.54906565 -2.9869916 0.47256607 0.2604791 0.57620215 -0.97408366 1.9404322 -3.1281893 -1.3620709 -1.987538 0.9538762 1.5678264 0.15137012
4553 -0.40795398 -1.0860072 -0.25529924 0.94699264 1.4306349 0.014568126 0.2714598 0.15608597 -2.3353224 -0.68118435 -2.3002694 -1.5254883 -1.4634321 1.5362704 2.7357202 2.179236 1.6190394 -1.050249 -0.48375285 -1.3467002 -2.103939 -0.39559808 -0.16944033 1.3496239 -0.70028055 0.4374751 -0.99822474 1.957679 -0.18995385 -3.1759977 1.3693539 1.156203
4581 0.40865132 -0.29313678 0.6678279 0.508247 -0.018577391 -2.0032492 2.2188535 -0.4492413 0.32345474 0.43382844 1.4594153 -2.4468439 -3.8209076 -0.87645113 -0.41269636 -2.162093 -0.7283959 -1.5534116 1.098823 -0.55981725 -2.1713665 0.8960634 1.1938595 0.27028927 0.9157266 -0.8655594 -2.745155 1.0221267 -0.95177966 -1.7401557 -1.6840923 -0.7388251
2754 -0.47228813 -1.3712794 -0.23877496 0.15682735 1.282979 0.5396984 0.575746 -0.27792093 -2.166946 -0.67810464 -2.677876 -1.537839 -1.4942832 1.2460382 2.046013 1.6330472 1.6075622 -1.0717245 -0.65385926 -0.99609673 -1.8458526 -0.62086767 0.45306012 0.9206526 -0.78070444 0.0811058 -0.7356167 1.4449575 -0.2972612 -2.911163 1.4751936 1.411285
4726 -1.5737828 -1.3739728 0.10383958 -0.07057923 0.905537 -0.89900184 -0.008329452 -1.1106766 1.7654128 1.0334888 -1.1663944 -0.7603311 -2.6396015 0.35868165 -1.0306903 1.7078956 -0.04246437 -0.94783765 0.051052183 -0.2623843 -0.21865602 -0.5505698 2.3918395 2.0882711 1.0507282 0.2909797 -3.717851 0.017082023 -0.5027685 -1.0222785 -0.67128545 3.4316392
1156 1.5776697 0.7428239 -2.0158243 -0.33865952 0.060526237 -0.6290508 0.47863808 0.09694476 0.6666418 -0.5457753 -1.3236818 -0.19535953 -2.5253048 0.29791895 1.6830341 2.0653343 0.17646366 0.3648337 1.5019337 -0.6638001 0.96007955 -0.20776667 2.4485452 0.40848643 2.330113 2.918659 -1.769515 2.4937978 0.5929134 2.0601532 -0.63187176 -0.55875677
3680 0.58645666 -1.0380125 -1.1310405 -2.2220998 -0.74324185 0.20604537 0.55806136 1.7968878 1.6008233 -0.032104164 -1.0174845 0.82307774 -2.4590037 2.6579287 -1.0993205 0.14082974 -2.1359553 -1.2167318 0.5584253 -1.750901 0.75429434 0.14391617 -1.5254058 1.0509051 -1.4974393 2.7552602 -2.1594958 2.2663262 -2.3934216 0.37062293 -0.29072073 1.4382803
588 -1.6986274 2.679923 1.1819671 -1.4095371 -2.4364974 -0.84486943 -1.5207484 -0.30705488 -1.265789 0.8984936 -3.7179775 -0.46901432 0.81238323 0.06775724 -0.4182002 0.6452012 1.3372072 -1.5124457 0.81980073 -1.6496416 0.46019036 -0.5569424 -0.039104383 2.4192536 -0.90376604 -1.1153365 -2.9005003 1.6265604 -0.766032 -1.7591069 1.1300606 2.0186956
1110 1.9564803 1.0789593 1.322163 1.4801358 -0.63976127 -0.6196818 2.1917732 -0.78328717 0.639635 -0.4387123 -2.2366982 -1.9216707 -1.0973066 -0.91981095 -2.3901763 1.7350382 -3.313958 0.7499077 2.2320335 -0.68793386 -0.81572384 0.4776764 0.6651857 0.23188427 -1.066235 -1.9174379 -1.6791205 -0.6836243 -0.5065932 -2.2567716 1.7691483 -1.0533445
4459 -1.2272217 -2.373905 1.1513019 -1.2366762 0.32973284 -1.2003429 -0.2513756 -0.7551935 -0.22291896 -3.6497817 -3.5264053 0.7067252 -1.9150851 1.407312 0.4016442 -0.7501009 -1.4964304 -2.1111634 0.034470227 -1.3812753 1.1195195 1.3006233 1.3533963 -0.7467825 -1.4416893 0.75259733 1.1981796 0.6008693 -0.5977193 0.21287927 0.16096145 -2.4560614
5000 -3.2762134 1.7804819 1.4302614 -2.5611691 0.65293956 -0.39514726 2.1454828 -0.45864502 0.4141792 -0.10839213 -2.6465998 -1.7289315 -0.33198357 -1.6849947 2.9578247 -0.47524977 0.1397691 -2.2109091 2.5500798 -0.35635614 -0.18079357 0.6294917 0.31799203 1.7199775 1.470767 -1.611701 -1.0907503 1.4788982 0.97654814 0.8650298 1.4666951 0.56069267
2926 -1.1985509 2.0526125 0.71354675 -1.337692 -1.5896803 -0.039882686 -1.410295 -0.2631865 -1.0937437 1.274228 -3.9882886 -1.0067192 0.26194525 -0.045688093 -0.15833221 0.6987837 1.0890056 -1.2025092 0.851675 -1.4592092 0.2684934 -1.2810054 -0.057622153 2.149767 -1.3193656 -1.2605833 -2.6330771 1.5014102 -1.0474324 -1.9643207 0.9735157 1.5055054
2667 -0.68583596 -1.7562349 -0.1949149 0.9273529 1.7034904 -0.11980611 0.15168254 0.14554244 -2.3891516 -0.99718845 -1.9591317 -1.2119228 -1.6469579 1.5694108 2.986519 1.6892679 1.0701917 -0.90392274 -0.753624 -1.1782427 -2.2250154 -0.07866853 0.23952578 1.1357577 -0.85907835 0.5641747 -0.7139556 1.691472 0.28623047 -2.9961462 1.6812687 1.2133927
2838 0.3916115 -4.3239665 -0.9840774 1.1892397 1.2612182 0.66155696 -0.8775941 -0.7612356 -0.71180385 -3.3168232 -1.7283331 -2.4318469 -0.38378006 0.28912067 0.11260448 1.5310868 0.18996112 -2.9998972 0.709328 -0.4116292 0.19130832 1.0748726 -1.4684703 0.2951206 1.1342757 0.5960925 -2.561816 0.17108266 -0.12448601 2.0673165 -0.024891255 0.42330262
1278 1.3144367 1.156174 0.1931003 1.6354797 -1.319463 -0.55471706 -0.38469505 -0.37982267 0.11508603 0.23039107 0.12386545 -0.82858956 -2.8229861 -0.6675719 0.0892214 -0.7030324 0.43912205 -0.6958071 1.4218316 -0.33638617 -1.6396846 1.1354278 -0.32081127 -3.419397 1.5920053 2.831265 -3.9582963 1.1431704 0.28015235 0.32657298 0.25571442 1.3846859
761 1.4502275 0.8125414 -1.1949757 -1.4577523 -1.4819919 -1.1589707 -1.5618308 -0.45188022 3.1612568 0.31244296 -0.5687443 -0.81098235 0.14963017 3.7674136 -1.2046962 -0.84554505 0.67139477 0.51595277 2.4453347 -2.2665231 -0.25177535 2.2989311 -0.09415226 -0.5156648 -0.5565576 -0.37811384 -0.23561566 1.1905073 -1.094271 1.728034 1.1550721 -1.263797
4121 0.20754959 -0.84549993 1.9069619 -2.7482798 0.893395 0.930808 0.38626283 1.1854312 -0.208122 0.35539332 -0.43465802 -1.936574 -0.21354042 0.20801246 -1.1522404 -2.6552215 -0.676339 -0.2159792 -0.6082207 -3.5522811 1.6221435 1.136323 3.1890821 1.6757754 0.24221645 -0.08793407 0.1950075 1.243764 1.2489008 -0.020287724 2.765378 -1.3410798
3279 0.7540483 0.29259926 0.06851691 1.4091594 1.0352482 -2.3926857 -0.3858147 1.3408732 -0.25002116 0.31314072 -0.34865925 -1.0160917 -0.55338013 1.9177793 2.0117822 1.9021403 1.1369892 0.016386958 0.4541438 -2.78102 -2.6908462 0.27169332 -2.1748662 1.6059493 0.3202751 1.5133522 -1.9821014 2.022772 2.4078376 -2.93513 1.040055 -0.9757033
2443 -0.79870266 1.295747 0.47703207 4.252075 2.0621884 0.5572743 0.9957881 -0.8037178 1.8734555 -0.30819163 -0.63350147 0.42863625 -1.2821643 0.51327896 0.15010136 0.17645273 -1.389703 -1.3747996 1.42721 -2.4138637 1.4375814 2.7115748 -0.43153375 -0.015432238 1.0523709 0.49088743 -1.2775148 2.719702 -1.8153275 -0.6620374 -0.344807 0.3080742
1183 0.14862384 -0.48047954 2.0378203 -2.3051279 -0.1486377 0.3708711 -1.1988038 -0.2724859 1.9154003 1.3724583 0.76576936 -1.6509207 -1.5606428 1.8660259 2.1110876 1.5200195 1.1133672 -1.1347647 2.01716 -0.6472436 0.8530103 1.4532266 -0.03549097 -1.1863714 0.12044247 -1.5250645 -2.236261 0.04066954 -0.27952754 2.8950176 2.1728797 -1.3261245
2816 1.0556084 0.79893404 0.29572996 -1.6356702 -0.31841755 0.40569735 0.1941379 -3.8676884 0.26831874 0.65439945 -0.75511444 0.74811804 -1.3881016 -1.5304457 -0.14782204 0.49963114 1.6833053 -1.0169197 1.5702497 -0.80564666 0.46458018 3.2829275 -1.6944505 -0.40372482 -1.4865637 0.8612234 -0.12048233 2.1920025 1.3625307 -0.47714287 1.8878849 -0.35266238
3398 0.541171 -2.5082295 -0.40750873 -0.21185239 0.6191014 -0.6612689 0.19211121 2.4166703 -0.36017975 0.5925565 -1.711043 1.2951523 -1.3245891 2.7512555 -2.3999574 0.17698285 -1.3395783 -1.652801 0.99681604 0.56431043 0.47434935 -1.1387087 -1.1185973 -0.7538748 -1.4113941 2.3220775 -3.483869 1.7037685 -0.5808991 -0.9127201 1.6669768 1.1167276
721 0.4880479 -1.956345 2.3798494 -0.045501612 1.5275503 -1.1474413 2.8356795 -1.0458151 0.47367358 1.8198913 -3.1840982 -1.0844568 0.4150653 1.2753623 0.20975895 -1.1168883 -0.20390859 -0.8709109 -0.3611188 1.5481015 1.1788185 0.630774 -0.7899944 0.748037 2.5863426 0.35547316 -2.0899975 -0.051095307 -1.7863159 -1.5925543 0.40357062 0.6594725
3324 -0.73107576 -0.27440768 1.6654617 -0.48856822 1.2467899 -0.9471952 1.0131471 0.040491827 0.13667731 -0.6795151 -0.34631905 -0.62487346 1.7193365 0.18576679 3.9827018 0.08003614 0.74982584 -2.278713 0.9783739 -1.0460844 0.3838397 0.63341194 -0.30271137 -0.59165436 -0.9548278 -0.36690488 -4.393207 -0.40745747 0.82920605 1.5970757 1.4775852 -1.1069348
650 -0.5702422 -0.15643315 0.034039363 0.07977561 1.3542252 0.06749037 0.6541826 -0.96964246 2.7718475 -0.7083856 -1.3622125 -1.4035728 -0.048813332 -2.978421 0.6697659 -0.83978784 3.1691246 0.065583594 0.7646605 -2.2464244 -1.5099165 1.5176289 1.142885 -0.42961764 2.8626254 -1.3937638 -0.8474496 0.1681401 -0.021387432 0.59900546 2.1926646 -2.3140087
3881 0.44800413 1.2195839 2.0738115 -1.3704765 2.6208282 -0.28220966 1.916749 -1.8344681 1.2776729 -0.26608253 -3.2015605 -1.6230229 -1.101379 -0.40855464 0.8298362 0.45057645 2.1952806 -0.676833 -1.1937743 -1.350356 -0.65259504 -0.65798265 1.6824958 -0.71802044 -3.116281 -0.28648248 -0.6852932 -0.09591755 -1.4556429 -0.064629465 1.6385795 0.5122137
835 -0.13128394 -0.0017509627 2.1241539 -1.8461086 1.5857478 2.4026606 0.6007136 0.070485935 0.46719182 -1.7043961 -0.7292951 -0.7678917 -1.368669 0.34995398 0.7397215 -0.46854332 -0.074245565 -4.7260494 2.252019 -2.2843037 -1.1163828 0.6787564 -0.013113781 -1.8325934 3.0774376 -0.24855067 -0.24336775 0.06453435 1.4718224 0.88263094 -0.86541885 -1.3235605
4766 0.76447356 0.39797968 0.19869335 -0.49499494 3.7581666 -0.07967881 0.1417838 -0.46155864 -0.6602693 -2.959933 -2.1311817 -0.87678844 0.63092965 0.23647834 0.86424446 1.3579129 1.5472013 -1.6707861 0.12406671 -0.60179055 -0.12002569 -1.7201903 -0.09736118 1.0516481 -1.2670753 1.8473796 -4.2655888 0.09360316 0.5318338 1.5603192 0.18868813 -1.8881714
1445 -0.5669111 1.5761997 -0.30842388 4.1382284 1.9788055 0.7727807 0.66130257 -0.10780892 1.3091499 -1.20927 0.1669634 -0.1766985 -1.2921963 1.0030613 0.3541944 0.5250564 -0.7477978 -2.1330416 1.6109897 -1.7080535 -0.05360531 2.1322684 -0.56499904 0.8344767 0.41870973 0.52671325 -1.2026085 2.7044625 -2.0039878 -1.01968 -0.120764464 -0.25251284
1368 0.90901893 -0.97685385 2.148924 0.78049624 0.1868678 -0.9132158 -0.0015508564 -0.020083752 0.6616327 1.1840127 -2.1421442 1.5756499 2.0287747 -0.31017467 -0.9940862 -1.1144153 -1.2983651 -0.9619262 2.538795 1.6134222 -0.020622483 0.19026516 0.052981272 1.4464992 0.9087366 0.75860375 -4.4319386 0.6233227 -1.1620358 -0.4455419 2.2965374 0.40152553
850 1.3586744 -1.4592383 -0.43720227 -0.8404386 0.82961893 -2.4789248 2.6771557 -0.79181373 -0.63466465 -0.5715414 0.03722861 -1.2495586 -2.7065227 1.357143 -2.1806223 -2.966884 -1.2218189 -2.2549279 0.82617736 0.07725632 -0.45263612 -0.6107411 0.50008124 2.521967 0.72405016 -0.7892957 -1.4848301 -0.22378929 -0.5680743 1.1920412 1.5881519 -1.0854826
1184 2.1995633 0.14224586 1.4516878 1.2399138 -0.059243616 -0.7673079 -1.826337 -1.2880365 0.39776257 -0.28536046 -1.3175901 -0.06046647 1.4232424 -0.24078299 -0.023612116 -1.65446 -2.644381 -2.4037967 2.9446404 0.64959276 0.24425784 -0.4802049 -0.16195813 2.558746 -0.69985527 0.26040998 -4.0940294 0.46702087 -0.942393 -1.2347765 0.91657376 1.2139975
487 -3.2365596 0.65865844 0.9158814 -0.17508446 -0.54675883 0.6699923 -0.4889131 0.108967766 3.1162405 1.2322963 -1.0527171 -2.4419248 -3.5855763 -0.23668721 0.9908371 0.853713 0.13206552 -1.2060665 0.12852943 -1.1254579 -1.1692376 1.4284667 1.5009451 -0.30589423 -1.6063303 0.9980276 -0.584164 0.8829155 2.248612 0.19073458 1.9061334 0.5758571
496 -0.24394296 0.32100824 2.7045844 1.5369781 1.9963795 -0.39047882 -0.53512806 -0.028056901 0.036690265 0.96596617 -4.0576515 -0.90279394 0.02562894 2.8316848 -0.42898786 -1.5996128 -1.1527306 -1.0590777 -0.6315102 -2.7722745 0.27816957 0.7294703 0.0055251527 -1.5398377 0.116477564 -0.44771457 -1.1209228 0.37412438 1.6066259 0.40412453 -0.95873225 1.5426676
3175 0.20507984 -1.101423 0.37975264 -2.7404718 1.2913159 -0.27623028 0.73466074 -1.2671942 -0.12579797 -3.8183184 -0.66953707 1.1813226 -0.3449806 0.21666408 -1.3222191 -2.9691193 -2.0070806 -1.8650099 1.6175866 0.23666432 0.3580148 1.3439977 1.5780196 -0.45558435 -0.6532007 1.0708011 -0.862279 0.9465517 -1.2386296 -1.1502373 0.18054016 -0.3464978
878 0.74793535 -0.73699486 0.679165 -3.442197 1.2123215 0.56612235 0.27650666 -0.8240339 -0.080516554 -3.9798448 -2.113352 1.1388705 0.014313067 -1.2405243 0.22737348 -1.521301 -1.7231311 -1.4656303 1.2630798 0.018740855 -0.14251898 1.2774719 0.7567823 -0.7878882 0.17278479 1.0630854 -1.498173 2.969164 -0.36569297 -1.1780088 -0.15800746 -0.09710393
3481 -0.7080157 1.5095124 1.632401 -0.36770743 0.43026066 -2.1520426 0.7619773 -0.50868255 -0.3636309 -0.65539837 -3.0784202 -0.3020403 -2.1092887 4.405908 0.48668456 -0.16548708 -1.49186 -1.3132867 1.265133 -1.4591801 1.1639403 0.6020521 0.64959 0.3328563 -1.0050627 1.4178789 1.5565343 -0.7277828 0.98811066 0.044539444 1.4309012 -2.129969
2209 -1.8237611 0.295501 -1.136413 -2.0677524 1.5676324 0.6313281 -1.4562573 0.042992882 0.7200011 0.11251377 -1.5302117 -0.6825728 -0.72316194 0.23983325 0.46780565 1.5796857 -1.8738374 1.78765 0.73847836 -0.13057388 -0.55746675 0.57979804 1.1497649 0.29713133 0.06756794 1.4524517 -4.1621375 1.029525 0.6332343 -0.43141383 -0.59126216 2.4725065
3600 2.428274 -1.4703696 1.5600713 -2.5674171 1.2690338 -0.57218814 -0.43449524 1.7544649 0.43436462 -0.1134014 -1.5839301 -1.3618762 0.54050654 0.32404572 1.0452412 1.3536631 -1.0867923 0.79735786 -1.4608692 1.4394248 -0.66625804 2.0994747 1.3241407 0.819268 -0.15933457 -0.51543987 -3.112563 0.95099914 1.4842241 0.43587193 1.6385314 -1.3974106
20 1.3154835 -1.2052503 2.9017513 -1.9517164 0.6533266 1.0151623 1.1539868 -0.5378047 -0.14805995 0.15845971 -0.82906574 -2.9014251 0.1708509 -0.99465567 -0.124015406 -2.501255 -1.812152 -1.363361 -0.333212 -2.238026 1.641523 0.36544305 2.4007201 0.72909546 0.8280019 -0.048129328 -0.108708255 1.9047402 1.0870575 -0.9022565 1.9464239 -1.3467075
41 2.2242508 1.2359984 1.478021 1.3299125 -0.17021583 -0.6272636 1.6780171 -1.0520096 0.875558 0.14925481 -2.1054754 -2.2486122 -1.2498666 -0.59198517 -2.0854235 1.9367009 -3.5911741 0.48515153 2.086656 -0.46104273 -0.989562 0.37699378 1.3400131 -0.18091145 -0.68417066 -1.6621487 -2.6424246 -0.27201623 0.19020344 -1.6491822 1.6077276 -0.7287297
1132 1.9845701 -2.3392904 -1.5633186 -1.2620465 1.1987324 -1.9553529 -0.71462345 -1.7270564 -1.2132324 0.4212338 -1.9405904 -1.3421869 1.3398288 -0.59593654 0.8610132 1.3025459 0.332005 0.8179942 0.49238232 -1.5237365 -1.6066072 1.9407856 0.79979074 2.8548987 -1.0205393 1.578589 -1.1858344 1.6979544 0.49189618 0.76533264 -0.014025368 -1.4869789
1892 0.8882063 1.0631313 1.174081 -2.21128 0.682241 0.1245767 1.6633236 -0.58302325 3.3030746 -0.26323393 0.8987398 -0.8181373 -2.8889766 1.5946308 0.048399948 1.2440425 -1.0826905 -1.9141283 -1.0910455 -0.49202856 -0.80247 -0.0950816 1.2656621 -1.4876304 -1.6863108 0.40724838 -0.9085802 1.6972553 0.7730018 -2.619766 1.5338954 -0.43361416
338 -0.15046236 -0.3614454 -1.162686 -0.095330164 -1.5814939 -1.6700288 -2.180286 -1.317527 0.9864939 -0.36736822 -1.200754 -2.466504 0.59552807 0.7938074 -2.5064616 -1.4158034 -0.32745513 -2.091731 -1.4067975 -0.85607177 -0.56613183 1.4871546 0.14264835 -1.6550614 -0.7301777 1.0559781 -1.4607482 1.3586009 0.31705794 -3.054184 -1.227808 2.1109464
3180 0.87434274 -1.6315544 1.4590837 -0.5152317 -0.622348 -1.1912918 3.7625287 -0.22531812 -1.739279 1.1212058 -1.8906794 -0.20349231 -1.9419651 0.46353075 -0.7854094 -1.2865132 -0.32300112 -0.4472765 0.44525528 -0.32756874 -1.4448118 -0.5475751 0.26134565 1.6944327 0.7545577 -2.0546713 -2.1831632 0.98613256 -1.4249513 2.9484367 1.1492821 -1.1578416
4338 -0.8116146 0.11669477 1.0862066 3.4972448 1.4054018 -0.5270704 1.3455703 -0.77057534 1.8349146 0.30189493 -0.033661127 0.6028689 -1.6980644 -0.5899767 1.7734202 0.4095027 -1.9894862 -0.80193645 0.20129415 -2.6046686 0.96000075 3.185221 0.6329038 -0.081589885 0.10062114 1.6709244 -1.8477911 2.504542 -1.7075099 -0.21197128 0.68338823 -0.6613607
4253 -0.34291485 -0.076813534 1.4413512 0.8268421 -1.0036079 -0.3237914 1.299864 -0.32268515 1.4718301 -1.4337007 -3.3206377 -0.6440046 -0.94199026 -1.1466477 -0.0499849 -1.8384842 1.3837581 0.4366823 0.8325451 -1.003289 1.0101385 -0.07884852 -1.4435778 0.4035924 -2.637666 3.0260477 -0.48991957 2.7762902 -1.0656296 0.31637836 2.44031 -1.3594589
4046 -0.60827935 -1.1958538 1.3679496 0.4054404 -0.018625354 0.14504822 2.3954031 -0.792016 0.522138 -2.8583398 -0.97987735 -2.4742415 -0.9912453 -1.6074934 -0.3528209 -0.9667921 3.8710058 0.16827612 0.8493309 -0.48595005 -2.3105907 2.0226812 0.71000034 -1.645443 1.8334162 -0.2443819 -0.79976773 1.282752 -0.26512873 -1.557622 0.49136925 -3.6542556
1904 1.580681 1.3926065 0.91300076 0.74872816 -0.25256053 -0.2767738 1.3046335 -0.9114565 0.06245256 0.0731202 -1.5484842 -1.9228817 -0.8160961 -0.33180034 -2.255609 1.8505713 -3.6963706 1.2739798 2.1259115 -0.16197716 -0.76984936 0.15432656 1.6816105 0.14788231 -0.68633825 -1.3408611 -2.783331 -0.39988086 0.4632805 -1.8526826 1.321555 -0.5864831
3837 0.15023974 1.6338147 -1.0024428 0.51060843 0.00048684975 0.32519355 -1.2332743 -2.1729884 -1.07647 -0.06383987 -1.8099891 -0.73777765 -1.901441 -1.3157579 2.6861572 -1.7361543 2.4476702 -0.60029644 2.7691507 0.99115115 0.47514334 2.7589579 1.1407758 1.0295528 -0.41583544 -1.3392389 -2.3113816 1.3934405 -0.26306728 -1.4176635 1.430422 0.6324614
2614 1.248104 -0.10627892 -0.5156294 -0.26931727 -0.15801843 0.6368366 1.5211452 -0.73425174 0.7193743 2.023907 -1.4532895 -0.30030915 -1.9043419 1.7830782 3.0051928 -1.596746 0.33412054 -1.2553052 0.21498662 2.8521898 1.665258 2.8142233 -0.65980345 -1.0521432 2.1776984 2.4320006 -2.17568 0.27156314 -0.9031431 -1.0400296 0.9752511 1.8141313
3870 -1.4506532 -0.46015286 0.5577177 2.431587 0.61642474 -0.7881803 1.266226 -0.6983985 2.1528087 0.7876211 -0.40109196 0.28462726 -1.865997 -1.3523605 1.7337898 0.36600128 -2.8003566 0.66100377 -0.0728698 -2.982523 1.8340303 2.9497888 0.5824044 -0.10284009 -0.45980126 1.0803092 -2.1147876 1.6956794 -1.8824209 0.025048757 0.537142 -0.0785857
2284 -1.7634325 2.0787332 1.2632318 -2.61785 1.1394621 -0.28873914 2.0747633 -0.23486124 0.5900271 -1.0463611 -2.308545 -1.5927187 -0.011299734 -2.0130465 2.7583966 0.34434205 -0.47056562 -1.9891696 2.7288432 -0.107367605 -0.83855176 0.73429716 0.2573455 1.6005199 1.0421802 -1.1427448 -0.64143515 1.7255045 1.0530165 0.17936388 1.3881742 0.44230708
716 -0.42173705 -1.395619 -0.479481 -1.3679748 2.1880684 -0.28465495 0.3514527 2.1984386 0.18146418 1.101974 -3.200939 -0.3048398 -1.5654018 1.0855402 -1.2325002 -1.5256604 1.0722657 0.06694477 1.9682835 -1.424651 -0.4153522 2.9461522 1.4503032 -0.6849049 0.6607937 -2.2071552 -1.3468528 -1.1148342 1.551632 -0.21267615 -2.1272998 0.7237696
2811 1.5394591 0.22733282 -1.3457474 -0.15547796 -0.258106 -0.89189005 0.7265058 0.70414454 0.7489712 -0.14401932 -1.6216648 -0.9039981 -2.6565127 1.3058792 2.9244382 1.8176173 -0.2651859 0.61076075 1.502815 0.103319146 1.6778427 0.43130562 1.5788243 0.0637995 2.994398 3.7130497 -1.012099 1.7771928 0.79256797 1.8468075 -0.7538245 -0.43912053
1124 0.3957588 0.77369374 -1.3062392 -1.6909503 -0.60696983 0.9681133 2.3614688 -3.030083 0.80500925 1.8774291 -1.3730716 1.4201944 -0.44146806 -0.2559268 -0.1522502 -0.54231644 0.97015053 -1.6192127 0.23137556 1.5026443 0.57161885 3.4677134 -2.2059302 -0.71182966 -0.5839922 0.48233932 -2.370846 1.2348737 0.77461517 -1.1554637 1.2720778 -0.18468517
805 1.371906 0.6693286 -1.6759878 -0.8055919 -1.2722721 -1.334268 -1.6244537 -0.806044 3.0918074 -0.047753368 -0.8031993 -1.0874528 0.7959538 3.9707613 -1.5220239 -1.5403043 0.35033074 -0.008222458 2.216116 -2.433272 -0.17539947 1.6910952 0.01953414 -1.0115731 -0.71527785 -0.46749523 -0.26138452 1.4317216 -0.6877033 1.2535771 0.3899009 -1.1417152
2360 -1.2947093 0.26658714 2.167447 -0.9650514 0.9786793 1.0414796 1.1724114 -0.7484623 3.2829602 -0.62162614 1.5762602 -0.7528103 -3.4466236 1.4550012 1.5928764 1.1758845 0.040006075 -1.6907536 -0.60476387 -1.2616687 -0.5859947 -0.58059776 1.6717638 -1.8032466 -1.0624939 1.0816025 -1.0863948 0.7200078 1.3199316 -1.0580187 1.1653817 0.0152222775
1206 1.8266941 2.104365 -2.3962333 -0.11417224 0.29811743 -0.14012325 -0.041442644 -0.27948812 0.3053568 -0.8195545 -2.0701935 -0.8322241 -2.7836175 0.6368188 1.7505058 2.1287396 -0.10511107 0.5146904 1.8122185 0.03692553 0.38671097 -0.14418167 2.482777 0.33498865 2.0631535 2.4151762 -1.512585 2.4181828 -0.10451864 1.6467383 0.05367701 -0.6360547
950 -3.9704964 0.53637373 1.2264786 -0.24889503 -0.39041793 0.6854345 -0.16942966 0.21370834 2.5997622 1.0157218 -0.52486366 -2.3745916 -2.7727237 -0.5874444 1.8645065 0.41817224 0.47447953 -1.7454956 0.67033714 -1.219407 -0.99496436 1.2602075 1.2071431 -0.08730319 -0.63534886 0.42503864 -0.6318299 0.4457797 2.3491366 0.9169538 1.7399089 0.63029265
1013 -1.1321924 -1.3983238 0.5467688 -0.0422807 0.87382454 -1.0653058 0.35721543 -1.1217865 1.8409766 1.0310227 -1.2984623 -0.88433194 -2.5864286 0.38828787 -1.172483 1.7504767 0.2029777 -1.290072 -0.18170013 -0.6148164 -0.24143298 -0.52766937 2.5028927 2.2373257 1.1271082 0.092353225 -3.3963888 -0.24546826 -0.432897 -0.689036 -0.38392678 3.3773592
349 1.8116313 -1.2282516 -0.37488785 -0.9352211 -2.4353635 -2.0965908 -0.00309621 0.1747629 -0.8750961 -1.2519672 -1.3184432 -1.4267384 -0.4630272 -0.24738233 0.04793899 1.0374643 -0.7173587 -1.0554559 -0.82237303 -0.8512658 -0.87130255 2.5570989 2.614198 -0.37158537 -0.819497 2.1114776 -1.2859461 1.9113159 -1.0183059 -2.4936619 -0.3548904 1.6691104
1822 -0.2477645 -1.4756321 2.532548 1.4932642 -2.6664286 -0.80373794 2.1663697 -0.78995836 -2.1284342 1.1826147 -2.7893264 -0.04816996 0.13249788 1.0735295 0.28430536 -0.83197784 0.2808526 -0.32673186 2.481934 -2.5259123 -0.7401213 -1.348314 0.6250682 0.54391176 -0.23905683 -1.1643202 -2.3394575 0.5927763 0.49280292 1.8326099 1.0262465 -2.3953514
2902 -0.56130385 1.0564914 1.6611376 -0.59604114 1.3023293 -0.0064007216 1.5947857 -1.9272281 0.74140584 0.413889 -2.9458776 -2.276213 -0.20668069 -0.0065762154 1.0675547 1.1921761 2.8771775 -1.3401059 -1.9307038 -1.2767037 -0.7135899 -0.5198908 0.88902336 -0.79880524 -3.2263176 -0.2085865 -0.2821415 0.4261405 -2.328351 -0.4198424 1.7120427 1.4669774
1961 0.6232642 1.575633 2.1400397 -1.5172447 2.0165226 -0.43745163 1.7662771 -1.4461418 1.3609381 -0.59219563 -2.821994 -1.545853 -0.5423485 -0.3668294 0.9765463 0.5832275 1.9962208 -0.77552587 -1.601748 -1.5814217 -0.56756556 -0.36249828 1.8432842 -0.8309845 -3.0707917 -0.2351411 -0.63972896 -0.05410871 -1.6730099 0.078899175 1.4989394 0.7947762
1514 0.21523923 1.4451075 -0.27178055 -0.88954914 -0.4404911 0.6310668 1.3485887 -0.5552195 -0.6643367 -0.6874678 -1.2502515 -1.6131349 -0.4037446 -0.12224203 -2.342572 0.75358105 -3.0381193 2.5411754 2.8693633 -0.40034232 -0.18901305 0.566509 1.928786 1.1181567 -1.4005644 -0.30005905 -2.870083 -0.18212932 0.13651949 -2.450828 0.98529565 -1.1959964
4804 -1.3782595 1.2930995 1.2430651 -0.7948998 0.8574938 -0.8572613 1.927193 1.3009702 1.3259301 -3.1332529 1.4701234 -2.562328 0.14503203 -0.24086669 0.8799192 -0.46340284 0.08913601 -2.9085317 2.39136 -2.2821808 -2.2970717 1.0644677 0.71890026 -0.6868354 0.9407203 1.9343971 -0.8569015 -0.5844289 1.5493102 -0.41496912 2.0853336 -0.31166992
1519 0.79844403 0.33470738 -0.3317669 0.08345389 1.1783754 1.0246439 -0.8654815 0.9593827 -0.031114507 0.7585306 -2.5618618 -0.06503673 -0.52848107 2.437145 0.11338323 0.50532275 1.3720937 -1.148487 0.8465828 -2.4321718 -0.3333694 1.713987 -4.2391977 2.6702244 1.94383 -0.7412362 -0.9525574 1.8194308 0.05398602 -2.5341592 1.0908221 -0.92083925
2507 0.4915225 -0.39277846 1.7199229 2.1039157 -0.43861303 0.07488006 1.7832313 0.3802182 -0.7411549 -0.25852534 -2.8285096 0.6506986 -2.648915 0.034503106 0.2763943 -1.1051364 -0.16532268 -0.19067104 2.2495737 -0.50639564 0.9235741 0.14280003 1.4429543 0.5532217 -1.8223081 -1.6720153 -3.7775693 -0.11043238 1.1949031 1.7537731 0.29483247 -1.120355
2034 0.12304122 -2.862216 1.2651592 -0.53036314 0.9750071 -0.78327245 1.7373904 0.33013123 0.7803455 -1.8398576 0.9456467 -1.2451272 -0.5423749 1.4030703 -1.313645 -0.8985345 2.2796245 -1.5176233 0.6764592 -0.18725023 -1.3189946 2.417331 1.9059081 -2.604037 2.0201578 0.65877235 -1.7978922 -0.30265972 0.24295233 -2.8304286 -0.3296809 -3.5080569
4197 1.4410703 2.5079331 -0.1513028 -0.47280198 0.69991136 -0.55526894 0.5004462 0.41506407 0.786991 -0.68156743 -2.763523 -0.48256108 -1.2554338 3.343956 1.3325263 1.8380852 -0.801263 0.19240397 2.1418934 1.1183597 -1.0224712 -1.3205259 2.1324742 0.5563026 0.56616575 2.3472705 0.15628277 1.3908455 -0.18998088 0.06843662 2.0628076 -0.6250043
3587 -0.17639235 0.39817008 1.49462 0.846789 -1.0654346 -0.953286 2.1263418 -0.2586538 0.73125744 -0.050222762 0.8188717 -1.8735992 -2.594479 -1.1876298 -0.4572692 -1.5149951 -0.28581437 -0.06623549 0.48008087 -1.5039628 -3.1905184 -0.032601643 1.563934 0.6073692 0.68589085 -0.54598796 -2.0192077 3.0995405 -0.6887058 -1.7196417 -1.4208779 -1.0460577
1418 1.2448984 1.9185617 0.3187731 2.518663 -1.2817031 1.178844 -1.5244739 -1.9824281 0.7799971 -0.24580725 -2.3838415 0.2754752 -0.29994053 1.6320102 0.6749719 -1.7231865 -0.2847015 -0.48108655 1.5774558 1.7850786 -1.7764782 1.3312445 3.3841426 0.591486 -0.7892546 0.43938392 -1.016131 1.3708569 0.8163381 0.35642964 2.3006613 -0.7136334
1046 0.5857768 -2.6704662 1.6500703 0.55574036 1.7955745 -1.5485202 1.3790284 2.263977 0.49133292 2.1277559 -2.2725492 0.6341901 -0.589708 1.2589167 -0.96667945 -0.511324 -0.5237567 -0.45559478 1.754204 0.2649422 0.38830915 -0.5859408 -0.080572166 -2.5802026 -0.55913806 2.644319 -2.4405057 1.3299296 0.024819283 -0.71648204 1.7833924 0.61964107
1377 -1.6341559 -0.6579791 0.42809018 -0.7053608 1.6087306 -1.7849169 2.5576317 -2.8359294 1.8681682 -1.7011219 -1.8008541 1.4724714 -0.66787297 2.5811102 -2.0412235 -1.440829 -0.31239614 -1.0128132 1.0059415 0.16183417 0.52591354 2.530296 0.79938567 0.8855132 -1.3383884 -0.61379814 -0.8166911 1.2347786 -0.54194283 2.2077703 1.4438858 0.6459822
2986 0.97640216 -1.5460117 2.0614688 0.8355161 0.73152745 1.0057325 1.3553584 -1.3153334 0.4135396 -1.2624497 -2.3407848 0.5504128 -3.1115618 0.019926172 0.45765647 -0.5390996 -0.11283762 0.80621654 0.486096 -0.17613204 0.30691662 1.7357781 1.1092776 1.3441721 -2.6898203 -2.0403478 -3.0103712 -0.067379646 -0.24888377 2.7935646 0.23974052 0.9540604
4608 -0.16439101 -1.499199 -0.20026276 0.033304613 1.459961 0.67598724 0.6954486 -0.52562636 -2.0858414 -0.72851956 -3.0191395 -1.6678964 -1.5579617 1.14145 1.9100053 1.3351262 1.7883291 -0.8764629 -0.4528405 -1.1752557 -1.8338062 -1.0032234 0.4567353 0.8159016 -0.7677468 -0.06640349 -0.60641325 1.3548995 -0.50671154 -2.7881796 1.4427148 1.2792006
2862 1.3639938 -1.7003884 1.9193888 -1.5797523 0.57737064 1.7126981 0.35302374 -0.9700213 0.16077174 0.96552587 -0.62153 -3.0686293 0.12881911 -1.1077533 0.0183895 -1.2558845 -2.2694325 -2.1551876 0.1516447 -0.5368965 1.4191827 0.6011449 1.9991889 0.6966023 2.0567577 -0.71799856 -0.65247345 1.7134658 0.75617987 -1.694717 1.469595 -1.5220426
2159 0.99442434 -1.741419 0.95093024 -1.6354867 0.73915833 -1.2007298 2.5940583 -0.4869086 0.2076423 0.22170715 2.1315346 -1.2527758 -2.0886648 0.7827991 -0.8781143 -1.925053 -1.3327852 -0.9294811 0.54478484 0.16654499 -3.1304488 0.02091021 0.41329053 0.87303656 0.23685364 0.19155586 -3.408619 -0.35484052 -2.9676728 1.0787369 0.310631 -0.34025407
2840 1.496366 1.1445314 0.05304302 1.7487438 -1.460955 -0.6624712 -0.26776752 0.006133755 0.078643404 -0.21669601 0.031296663 -1.2321585 -3.0114558 -0.5770694 0.44278273 -0.26532117 0.13932867 -0.51976216 1.2777791 -0.30400807 -1.354743 0.97417164 0.09168039 -3.1075041 1.6971089 2.5925567 -3.5928936 1.3615853 0.035635043 0.71087193 0.44532123 1.231382
864 -1.4143776 -1.4835539 -1.0111376 2.3645787 -2.9886534 0.8761689 -1.273272 -0.65163183 0.17944406 1.1338506 -1.4387199 -0.46233705 0.8570407 2.4102166 1.2317543 0.30579153 0.34613693 -2.8485122 0.86939377 -2.063288 -0.093242794 -0.8464487 1.3339071 0.5449093 0.7216499 -0.29096738 -2.6043892 0.25961378 0.3045417 -1.5806818 1.4815674 -2.509055
2510 1.032178 0.078380555 1.6641062 -0.079907045 -0.89878625 -0.29228228 -0.21858008 -3.0463529 1.2358552 0.03000769 0.62002575 -1.3554378 -1.0441557 -1.0046715 -0.96572894 0.65762836 2.1376116 0.08643124 2.3838477 -0.8913356 -0.15296058 0.33340934 1.0889494 -1.3574976 0.45870838 2.1763103 -3.8127909 -0.2645489 -2.375471 -0.06097305 0.20131144 -0.03518501
3727 0.94677836 -2.332563 2.4530275 0.2878791 0.13241228 1.0221735 2.4139256 -1.0678226 -0.38928077 -0.5657844 -2.1081517 0.053184144 -2.289136 -0.7212484 0.4570638 -0.66274846 -0.24247943 0.8167996 0.2961432 -0.5655569 -0.43768767 1.0846767 1.1180176 1.3972223 -1.4689906 -2.0354733 -3.0099866 0.46679786 -1.483749 2.991634 -0.026176255 0.80097497
3781 -0.080945425 -0.80091405 3.1712043 0.8791308 2.0857122 -0.40969002 -0.98785716 0.10869414 -0.65215474 1.5513225 -4.183158 -1.0478382 0.8617173 2.384259 0.5442295 -1.7038686 -2.2199578 -1.6638944 0.37361255 -1.4706506 0.39759475 0.14281984 -0.2591206 -0.7528125 0.05071625 -1.3659145 -1.334312 0.27892625 0.4986082 -0.20215367 -1.1080726 1.4629221
2500 -2.0574803 -1.535293 1.1601794 -1.9912068 0.33568728 3.3781595 0.30006978 0.44810414 -0.19206627 1.3255514 -0.15215787 -1.522807 -0.412058 0.74481595 -1.3968227 -0.8333532 -0.053888436 -0.6046678 -0.4905502 -3.3637645 1.8975753 0.887071 1.5042205 2.2826383 2.3792315 0.583798 -1.328824 2.426156 1.1492245 -1.5228276 1.5272777 -0.6012431
2364 -0.80063313 -1.1367474 -0.49055746 0.011920615 -0.46577898 -0.106354415 1.4718058 1.2797838 2.0253193 -1.0269765 -3.089626 -3.5695114 -1.0696839 0.25243706 1.5668395 -0.1259107 -0.7683823 -1.5804582 1.1717645 -1.1212153 2.2168508 2.4249208 0.93052053 -0.8030756 0.49650452 2.916368 -0.8050909 -3.3412554 0.16687213 -1.4642061 -1.294947 0.10943262
314 0.7997805 -0.18320966 -0.66744876 -0.9198946 -0.6638418 1.5749508 1.9365704 0.5018883 -1.0503759 -0.39305633 -2.5210037 -3.439552 1.1018234 0.71751636 -0.034151122 -1.6107397 0.33195204 -0.59369916 -0.39128745 -1.1768216 -1.3118116 -0.13642484 -0.7021806 -0.6365726 -1.0215056 2.1232245 -1.7657847 -0.15196024 0.12549382 2.40527 1.922874 -0.8987709
3366 1.2881018 -0.742871 -0.22781435 -0.5691862 -0.6627539 1.6395549 -1.4159894 -1.7073162 0.952302 0.18586637 -1.4721746 -1.3559602 -0.47568414 2.3680673 3.3158686 -2.1077526 0.91224015 -1.3653861 1.2276824 0.057023715 1.4764394 3.819343 0.6224027 1.1198204 -1.9319481 0.7824561 0.5993196 -0.38642883 -1.2241604 -0.45418307 0.9609588 1.3808277
1883 -1.2339237 -1.4929353 -1.8550116 0.2497916 0.1304221 -0.88013375 0.87253803 -0.30771723 3.29724 0.365349 -2.5514781 -2.062597 -1.8174461 -1.437001 0.6630351 -2.1497977 -2.0238967 1.6024925 2.0404696 -2.310123 0.7928188 1.1126804 -0.6646156 0.7131873 -2.6497242 -0.6584245 -0.51250494 1.2276658 -1.1421323 -0.81648403 0.10635941 -1.3455242
1939 -1.8659967 1.5699369 -0.06274813 -2.4190788 0.23489477 -0.84015614 1.8280729 0.8366159 1.8212857 -1.9120735 -0.04814779 -2.3574066 0.59117186 -0.9838085 1.5611298 -0.34488943 -0.60795885 -0.97683865 2.8244643 0.106990956 -2.4071443 1.4969953 0.32881707 1.3684204 0.8115495 0.7131341 -0.6141907 1.0070989 1.0623059 -0.35792452 2.5460856 0.8384639
786 -2.0944214 -0.48742747 2.7710793 -0.3992105 0.8415178 1.770283 0.99699783 -0.80121464 2.8335176 -0.8064962 1.013007 -0.88378614 -3.5584085 0.7404988 2.2511077 1.1198547 0.55792797 -2.340004 0.927557 -1.8193705 -0.48142645 -0.34799773 1.4294039 -1.7212145 0.13795386 0.32033423 -0.9951013 -0.48048872 1.251487 0.86117524 1.2755152 -0.33251294
1963 2.4896398 0.9296542 -0.97676563 -1.2022158 0.1474648 -0.4822783 0.6263141 -0.31486118 0.3053064 1.8330803 -2.242546 -0.85285014 0.43079415 0.78535795 0.9549094 0.18385477 2.3940017 -0.82908624 0.63737917 -1.9124169 -0.85270137 1.4843053 -4.05818 1.5809329 2.2299767 -0.77030045 -1.1795923 1.5279422 1.0076044 -1.9182911 0.34255692 -1.0952711
4799 -1.6298459 -0.20503701 -0.5022806 -0.98950994 1.2502896 -1.5553057 -1.9348421 -0.8701539 0.9642103 -1.003891 -2.3644116 -2.3266969 -0.8648737 1.524544 -0.8157324 1.0620828 -0.7349257 2.5868542 -0.048586275 -0.74732804 0.7203576 -0.056790277 0.0068635824 -0.54973483 0.9339991 -0.61777633 -4.177617 0.3805749 -0.033059437 0.4548364 -0.28117916 2.5183406
4984 1.561602 2.9801188 -0.18536939 0.047094025 0.598729 -0.042749673 0.17392868 0.42818305 0.76536304 -0.5079841 -2.7197251 -0.45948616 -1.0378124 2.8801827 1.1803154 1.0603702 -0.62918 0.3865666 2.272023 1.681727 -1.6378536 -1.0469 2.087285 0.36834285 0.37302205 1.8982451 -0.06632673 1.2607801 -0.10775698 -0.0049973303 2.417899 -0.39409631
2108 0.5642908 -0.72064376 1.8481419 -2.3451686 -0.46493426 0.7697965 -1.0048692 -0.44344938 2.3990939 1.3374211 0.8342169 -1.1226755 -2.026692 2.4689894 1.5242908 1.4748223 0.9577509 -0.9115759 2.0239296 -1.2448741 1.0574042 1.210475 -0.10161859 -1.3005716 0.9333705 -1.5971346 -1.5094442 -0.5778129 -0.39297464 2.6585953 2.193697 -1.4320745
4210 0.547039 -0.09284438 2.0847845 0.32460245 -0.8516354 -0.7747322 -0.33581227 0.20050986 0.31322706 0.41365573 -1.6431129 1.7613413 1.864783 -0.44853294 -1.3739475 -0.86419696 -0.9765159 -0.7571468 2.8866997 1.3511771 -0.15020709 0.5959875 0.2444853 1.9752514 1.0050547 1.2228587 -4.9534364 0.47192523 -0.6077769 -0.24708764 2.5568812 0.2970505
4544 0.574702 -4.6638327 -0.6490661 1.7688 1.2543565 -0.027286682 -0.59262466 -0.23742102 -0.817706 -0.9846592 -1.5984876 -1.3785284 -0.38188964 1.6911564 -0.80228573 1.582279 0.19947302 -2.9617229 1.0922914 0.36618388 0.10435081 -0.04795016 -1.9137588 0.5169326 0.8432664 1.366468 -3.4622686 0.11109761 -0.56577516 1.7313194 0.47101855 1.2131386
1639 0.07192786 2.956187 -0.8362963 1.0015957 -0.65789455 0.1679631 -1.2497181 -2.066352 -0.9411051 -0.3050041 -1.5419863 -0.38378227 -2.1823194 -0.7144496 2.1022236 -1.090061 1.6774462 -0.80712914 3.0244799 1.6937146 0.64307696 3.0804129 0.97879374 -0.042501464 0.5088687 -1.1456044 -2.2731116 1.1935729 -0.8183553 -1.2021297 1.7327651 0.78207266
631 -1.1383637 -2.305688 -0.67061734 0.46580184 0.18143338 0.37250152 1.056427 1.2125254 1.6252801 -1.1923939 -2.9558775 -3.7419581 -0.41512522 -0.22131738 1.0719659 -0.5775005 -0.23093121 -1.8380798 0.6078353 -0.9861554 2.0245783 2.3438828 0.10863438 -0.7531988 0.5377235 1.9102352 -1.5675821 -2.764021 -0.091860816 -1.2981826 -1.9558456 0.6969161
4926 -0.8918343 -0.13268319 0.951876 -0.36044148 1.7212046 -1.8463901 0.67292815 -1.736143 -0.37637618 0.41171518 -1.9402729 0.41720524 -1.7668997 3.6018674 -0.74622524 0.39776304 1.0449805 -0.018439882 1.749809 -0.5582508 -0.5463454 2.1193497 -0.5136938 1.1005193 -2.9565184 -1.4709976 -0.33096537 0.63889205 0.4264389 1.5449929 2.3171415 -1.4483287
507 0.8745826 -1.5807805 -0.8837037 -0.5556498 -0.46317026 -1.223388 1.6708783 0.63653463 0.8717271 -1.0327852 -0.99769056 1.1775273 -1.9648603 0.4724332 1.651978 2.562821 1.2319502 -0.9344227 1.4492024 -2.2260325 2.1712785 0.16344556 2.7032008 1.242621 -0.1617477 3.051938 -1.8592347 1.7577485 1.3066123 1.7320782 -0.85548955 -0.98215026
4502 1.055187 1.2989542 -0.85752434 -1.3305401 2.5064955 1.0646982 -2.0237844 -0.5453944 0.08502684 1.1890446 -1.6181262 -2.722661 0.20692292 0.13058367 -0.6335655 -1.9875482 0.44572577 -0.18660223 0.19119191 -0.7491899 -2.2891028 -0.05762299 0.623841 0.2856075 -1.6848639 2.33916 -1.492515 3.2953844 -0.90289056 2.7037835 1.8130578 0.976856
3460 1.2945801 0.6579684 -1.7948729 -0.5359612 -1.3491228 -1.9065385 -1.6012363 -1.1470919 3.5585291 -0.059592824 -0.6674915 -1.4172804 0.5767834 3.8171892 -2.1080387 -1.2450447 0.31597188 0.18810184 1.8819205 -2.5416682 -0.17451866 1.9157039 0.117113754 -0.872537 -0.5670044 -0.2996695 -0.26723558 1.2816315 -0.6664097 1.2652572 0.46606037 -0.42489704
4952 -0.17575705 -0.008161497 -0.22508812 -0.83393544 -0.8108561 -1.201154 1.384898 -0.138115 0.31561923 -2.0544834 -2.06093 -1.8459141 -1.9871314 0.9321121 -0.59003866 -1.7912207 -1.6917118 -3.478673 1.6014279 -0.034358997 2.5009909 1.8328695 1.2593224 0.6409228 -0.8221824 2.0786455 0.8120546 -3.53133 1.2704114 -1.3836651 0.9487381 -1.4553008
2631 2.0974247 -0.07890906 -1.5123492 -1.1461021 0.4341932 1.9183502 1.3141847 -0.054125775 -0.7546058 -0.14390801 -2.9210606 -2.3461928 0.09333444 1.4056139 -0.65459085 -0.13260695 -0.026694322 -1.0580899 -0.865433 -1.750229 -1.545844 -0.85002935 -1.1010675 0.13408034 -1.1528376 3.4572177 -1.2661906 0.28022334 -0.3295341 2.7116356 0.8443086 -0.31848657
4406 2.9853086 -1.4606773 1.0716144 -2.5041847 1.1396288 -0.18488947 -0.4506773 1.2675287 0.0528678 0.35798502 -1.8561119 -1.8603125 0.30623585 -0.34498948 0.881607 1.0977278 -0.6948876 0.9290328 -1.6387507 1.8936205 -0.33210886 2.3849576 1.9510316 0.86525893 -0.6318804 -0.5580807 -2.7556849 0.48971343 1.358868 0.4022862 1.8255991 -1.0541427
997 0.4473201 -3.9889805 -0.508125 -0.060047414 0.63234913 0.55491 -0.799024 0.47707936 -0.5727435 -3.98792 -1.9255295 -1.4710547 -1.0447118 0.5797913 0.7193923 2.326638 0.24768776 -1.6721618 0.4153258 -1.2050973 1.5325516 1.2744567 -1.181691 0.5744794 0.5725652 1.1485379 -1.360973 0.33115634 -0.50505155 1.8307685 0.8066517 -0.639005
3575 1.9040849 0.73172957 -0.7204259 -0.65215296 0.8213982 0.66685075 -0.73710746 0.092926785 -1.3773047 1.1415715 -2.4140515 -0.83707815 -0.26760325 -1.0342348 3.4916692 -2.9649067 2.7923174 0.19465615 1.588273 -0.3732833 -0.3769769 2.3710892 0.7647168 2.485564 -1.5176837 0.39998052 -1.3412688 0.9289826 2.0730999 -1.5306889 1.1520495 1.1088402
3415 1.1264256 -0.7839632 -0.08029577 -0.33242038 0.1796227 0.85172355 -1.6300917 -1.6125951 1.4271045 0.4501553 0.22372882 -1.3550234 -2.102758 -0.3219796 0.5446241 -3.1604476 2.2518227 -2.0681546 -1.2873955 -1.6203564 -0.7140511 3.0425246 0.5228781 2.1915128 -1.3914979 -1.2322664 -1.2984275 -2.2957625 -1.6124096 0.15536752 0.9635381 -0.4161431
4807 0.36058253 0.16405922 1.5775449 -1.5773132 0.8328357 0.71468806 1.5772107 -1.0335151 3.5137417 -1.2726887 1.3253055 -0.32518488 -2.8064418 2.1288507 1.2282556 1.0691199 0.026890978 -1.8922399 -0.8436942 -0.7773407 -0.6440483 -0.25578856 1.2306725 -1.8238566 -0.6260789 0.9499144 -1.1445341 1.1597083 0.8970723 -2.2514215 0.9720258 -0.46748278
2072 0.5320591 -1.8181719 -0.017886123 -0.46511748 1.9347643 -0.9176931 1.5614825 2.1186743 0.8822993 0.23786588 -1.1511546 0.03419327 -1.8409619 0.9283118 -2.3872132 0.4956681 1.3598733 -0.31482136 1.4353538 -0.7962138 0.9498757 -0.9178281 0.6175799 -2.150888 -1.9280949 3.0381696 -2.359391 1.2215257 0.29849595 -1.0170016 1.9683365 0.6505627
4918 2.5608697 -1.3538587 1.0057675 -2.2126453 1.3896129 -1.3102152 -0.56268674 1.2620227 0.27583987 -0.4076819 -1.7824264 -0.96238196 0.6408771 0.3361626 1.307485 1.6099979 -0.7437453 1.0331483 -1.1025969 1.079284 -1.2197115 2.2166831 0.663993 1.1778549 -0.4612049 0.123804465 -3.3692904 1.0615084 1.5124618 0.50391406 1.1587377 -1.0461439
1005 -1.1103724 -1.7012947 -0.6125737 -1.2977252 1.7635145 -0.8831425 -0.6154502 1.5998102 0.5672817 1.2665133 -3.0769353 0.22149126 -2.1251056 0.92619765 -1.1527272 -1.8032203 2.2664056 0.039229985 1.5355617 -1.1156021 0.20003971 2.9336245 1.2066314 0.2505544 1.6171347 -2.0488014 -1.3463148 -1.5626345 -0.22212225 -0.8058917 -1.0847847 0.9293987
2490 2.1492097 -0.62225735 0.36908677 -1.2207545 1.7250694 0.8566441 -0.48011857 2.2081857 0.31045818 2.236772 -1.1875764 -1.7973357 -0.7360295 0.50346094 -1.1735655 -0.28499308 -0.17680039 0.6042438 -1.6537012 -0.27918637 -0.0032502573 3.0286338 3.8653116 0.55159086 -1.1681986 -0.1279139 -0.72746676 -1.1204883 0.9158429 -0.22039282 2.633622 -2.218279
425 -0.26843333 0.81808805 2.1031578 -1.588735 0.12862581 1.1030322 -1.3034477 -1.0446438 0.38735485 0.4533696 -0.18416896 -2.0423157 1.2667127 1.9991708 1.9704375 -1.145546 0.8048332 0.9260088 1.7920796 0.36744556 -1.2232922 1.6589655 -0.040460404 -0.5787378 -1.5008458 0.7058188 -2.385791 2.7625792 -0.74721545 2.6169608 0.43935695 -0.3198916
3698 0.4857866 -0.75382787 -0.39649394 0.44164968 -1.2764273 -1.3492141 0.5818416 -1.7170161 1.858903 0.6608532 -1.0075196 -3.7535124 -0.6246056 0.46512678 -2.7597249 1.6733971 -1.1304973 0.021497305 -0.76284015 -1.35014 -0.99071753 3.0453227 1.2713788 1.1634145 0.7599224 0.6092704 -1.0705346 -0.7798771 1.4260241 1.37842 0.46510226 2.4381275
4381 -2.2980423 -0.9760137 -0.9356248 -0.43175262 0.6588032 0.49841037 1.1251769 -2.0200148 -0.42849714 0.62052006 -0.13617453 -0.38416836 -1.5026724 0.78705776 -0.30678585 0.7303138 0.8895988 -0.05409017 2.0833063 -2.0599508 -1.1300917 3.1592436 1.1623133 0.5283441 0.013252124 2.8011682 -1.3262743 1.0774721 -1.951059 -1.503194 -2.242378 -1.4275477
1329 -0.30041206 -0.23191866 -1.5948669 0.17012085 -0.38314265 -0.2884877 -0.6069829 -0.9794571 3.2414188 -1.7362729 -1.071432 -0.8120701 0.29933152 4.093622 -1.4459221 0.8665758 1.040326 1.8468958 2.1996071 -2.3659418 0.89353186 1.6256675 0.46758285 -0.5315479 0.5024343 -0.83081144 -1.2294008 0.3209958 -1.0084586 1.9471967 1.4782335 0.010845752
3523 -1.433164 -1.4998479 0.8141722 0.23083337 0.9523249 -0.9959789 0.45729253 -1.242312 1.7908489 1.3711679 -1.0074853 -0.47844797 -2.7748058 -0.049892057 -0.9941059 2.2758374 -0.18520153 -1.6259767 -0.3070603 -0.62095964 -0.015294545 0.03525254 2.2131999 2.089087 1.1444087 0.34479922 -3.4068341 -0.28263855 -0.5652456 -0.8642356 -0.4603957 3.4337816
3580 2.2336452 -1.8983715 -0.01813147 -0.08734022 -0.0016220433 1.5372678 1.0817045 -2.1827638 2.8559046 -2.6741908 -1.8992617 0.50609976 0.11649923 2.3308716 1.9675026 0.15540382 0.9489063 0.99910706 -0.20085362 -0.8152999 -1.7310675 -0.13544458 0.8719665 -2.2878287 1.93703 -0.011800555 -1.974925 0.19550778 -0.108771 -0.7292135 -0.554895 -1.5006757
930 0.23331872 -0.16709256 1.6928153 -1.2139161 -0.89705306 -0.52235985 -0.6045055 -1.9124532 1.7215712 0.5164448 0.38262135 -1.8878258 -3.5252254 -0.33684915 0.26693615 -1.8396801 2.3920686 -2.6661208 -0.4326376 -0.36112136 -0.5804423 2.848172 1.0203452 2.0587766 -0.74933 -1.8679594 -1.6096373 -1.9253558 -1.6434324 -0.4612021 -0.91094935 -0.70322794
4108 1.1991379 -2.1755345 1.5138171 0.63236207 -0.15817589 -0.91331315 1.3658122 1.9504694 1.2560753 1.2262071 -0.18666153 -0.5192682 -1.2780234 -0.44659325 0.57499844 1.2013307 1.8036723 0.30241176 2.8467896 -0.7430515 1.3975803 0.78678024 1.4568932 -2.3512905 0.48303163 3.0370667 -2.5797591 1.7481259 1.4430963 1.6819339 1.0065161 1.337675
807 0.9997687 -1.2782856 0.19436608 -0.9948775 -0.45475945 1.5778241 -0.31128255 -0.99174285 3.5096679 -0.7443667 -0.1987166 -0.4329273 -0.90106076 4.706803 0.11849108 1.6519591 0.2930496 1.1047697 1.8624736 -2.6288998 1.266495 0.776502 -0.111344844 -1.5456539 1.1619592 -1.0834419 -1.0481642 -0.36391413 -0.4897805 1.300967 1.1838316 -0.8900062
3924 1.6042202 2.8720684 -0.4678904 0.2784431 0.5938456 -0.0517827 0.008852361 0.42132103 0.75730634 -0.64565015 -2.6059716 -0.09608413 -1.2673793 2.4508464 1.1668348 1.4288929 -0.1047369 0.56057966 2.2577155 1.2963006 -1.6670029 -1.4310483 2.4037857 0.483912 0.86653507 1.772801 -0.7129589 2.1613407 -0.3024966 0.18321817 1.9355769 -0.49875504
1210 0.9132929 0.901076 -0.80909353 -1.8665495 0.68767846 0.57544804 -0.7679726 -2.2389717 -0.7607323 1.2121366 -2.0531182 0.10224948 -1.2504238 -0.73869693 3.246393 -1.3196992 3.8994572 -0.39069 2.6090245 -0.67454255 -0.83392906 1.4115447 -1.0204148 1.2204977 0.4546887 0.80207705 -1.2026775 2.2074568 0.9216366 -1.8981239 1.5871173 0.1828213
4211 -4.5257483 0.3660306 1.5224122 -1.3188576 -0.32649094 -0.4676161 0.4968286 -0.44083586 0.5612945 1.5762296 -1.7567983 -2.2236311 -0.97179896 -0.5242971 1.9567516 -1.3233988 1.1379901 -2.2019074 1.0287672 -0.6742639 0.6332875 0.7321901 0.41379905 1.1821321 1.1112125 -1.0169032 -2.4442565 0.518511 0.9428485 1.4957304 1.0696214 0.0013640649
2767 1.514069 0.32624698 -0.86841065 -1.3312705 -1.1727214 -0.071847714 -1.3293402 -0.341472 2.81414 0.5687752 -0.47434968 -0.6248044 0.049788494 4.2707233 -0.65862554 -0.30393907 0.51443875 0.7773187 2.4808497 -2.6253982 0.4496969 1.97566 -0.059431084 -1.1070234 0.08650944 -0.9370322 -0.20091511 0.8416235 -0.83806294 2.1493304 1.0143677 -1.6548599
646 -1.1515471 0.39314076 -1.9570388 0.2534511 0.8645128 -0.6249048 1.5227981 0.24426152 3.4430392 -0.12690677 -2.118092 -1.5139828 -0.8512885 -2.0251865 2.4552355 -0.81435406 -0.30677724 2.2811322 0.62804997 -3.45884 1.18071 1.8731484 1.2010432 -0.13373648 0.2843381 -0.81836003 -0.36674067 0.55211383 0.52035177 0.54072607 1.3192579 -0.5487036
519 -0.06728837 -0.4784292 1.6171695 -2.2779198 0.7914139 1.2394781 0.10660793 1.3444965 -0.007573654 0.16017056 -0.46682152 -1.4358184 -0.50833493 0.4215956 -1.56006 -2.7844455 0.12645204 -0.0077959755 -0.64494014 -3.8437629 1.7217959 1.0519356 3.065313 1.7816103 0.3616481 0.41729358 0.38186765 1.0454514 1.0792931 -0.123731665 3.041735 -0.87287796
1687 1.9639801 0.24330935 0.011181109 -1.0002292 -1.3346806 0.85071504 -1.5234295 0.8625575 0.8799 0.08407648 -0.3193576 0.43984655 -1.6837989 -0.10933212 -0.21007748 -0.22027141 -3.330903 -2.365167 2.803852 -0.36924613 0.021562403 -0.48229057 0.21633734 1.6777054 -2.5388365 1.8267232 -3.2196407 2.0016413 -1.1297476 -0.53336513 0.75681597 1.4859722
925 1.1271483 -0.09653289 -1.4036776 -1.8333688 -1.6957998 1.4034067 1.3523799 1.3123538 1.1153297 0.21805362 -1.5547522 -1.4448286 -3.0299494 0.6575609 -0.45691773 -1.3614583 -2.0343697 -0.678977 1.0294582 -2.1020708 -0.16837995 0.46452287 -0.935046 1.368977 -0.6312264 1.9409479 -0.9051324 2.2523818 -2.3325791 0.79377407 0.13910194 2.0516145
1410 -0.84018344 1.13729 -1.6418507 1.7623904 0.37736428 -0.77057064 -0.5238024 -2.6962812 1.5902824 -1.269788 -1.4875983 -2.1598961 -0.3984747 2.0770092 -2.3048296 0.62029403 0.13354191 0.7824936 1.1665009 -2.526086 1.6772294 2.0976436 -0.23654176 -1.3609551 2.7191796 -0.41012207 -1.9689597 0.17102769 -0.15222399 1.611069 1.0300041 2.179289
